0.18865664303302765, -0.22336366772651672, 0.027006175369024277, -0.39812541007995605
-0.12529778480529785, -0.15144455432891846, -0.054524630308151245, 0.11570141464471817
-0.17690669000148773, -0.27354297041893005, 0.02892516553401947, -0.3611125648021698
-0.044495612382888794, -0.4047580361366272, 0.10482287406921387, -0.3686748743057251
0.1325235515832901, -0.532759964466095, 0.1529862880706787, 0.10850293934345245
-0.3580337166786194, -0.7097423672676086, 0.12435565888881683, -0.04590567201375961
-0.254209965467453, -0.8789447546005249, 0.14162570238113403, -0.019779056310653687
-0.14937320351600647, -1.0503515005111694, 0.22194388508796692, 0.13821522891521454
-0.04536724090576172, -1.1407884359359741, 0.29901477694511414, -0.22326254844665527
-0.16097676753997803, -1.2024292945861816, 0.4079548716545105, 0.054516710340976715
-0.03974158689379692, -1.2716621160507202, 0.4301425814628601, 0.029831349849700928
-0.42679521441459656, -1.3068349361419678, 0.46716707944869995, 0.3873545825481415
-0.30760425329208374, -1.3024951219558716, 0.5254100561141968, 0.2390703558921814
-0.21816883981227875, -1.3565698862075806, 0.6339982151985168, 0.2750617563724518
-0.33825480937957764, -1.352147102355957, 0.7602577805519104, 0.22846297919750214
-0.32690665125846863, -1.4573794603347778, 0.7880994081497192, 0.28021976351737976
-0.08166824281215668, -1.4378851652145386, 0.8038535118103027, 0.37400683760643005
-0.536397397518158, -1.4905844926834106, 0.7167976498603821, 0.17312194406986237
-0.15300574898719788, -1.6604467630386353, 0.7010854482650757, 0.27417707443237305
-0.17913681268692017, -1.6676673889160156, 0.6706768870353699, 0.06652739644050598
0.024120649322867393, -1.5657888650894165, 0.601638913154602, -0.06755970418453217
-0.20087794959545135, -1.61882483959198, 0.5734270811080933, 0.15942193567752838
-0.3814300298690796, -1.5473209619522095, 0.5721427798271179, 0.35117751359939575
-0.2686540186405182, -1.4959378242492676, 0.5492128133773804, 0.04246511682868004
-0.4786238968372345, -1.5269384384155273, 0.5168907046318054, -0.09812723845243454
-0.3447468876838684, -1.4113742113113403, 0.4273372292518616, 0.010405227541923523
-0.6021690368652344, -1.4490376710891724, 0.4252682626247406, 0.2151949107646942
-1.0846161842346191, -1.4637024402618408, 0.3285515308380127, 0.22448191046714783
-0.8334455490112305, -1.4388214349746704, 0.32002195715904236, 0.04054860398173332
-1.467191219329834, -1.5220236778259277, 0.2997578978538513, 0.01653961092233658
-0.5890912413597107, -1.6740190982818604, 0.28618115186691284, 0.11917567253112793
-0.5358827710151672, -1.7626128196716309, 0.23494964838027954, 0.20600174367427826
-0.3809802532196045, -1.9321752786636353, 0.27121034264564514, -0.1655319482088089
-0.5759369134902954, -2.0219573974609375, 0.29346421360969543, 0.34827321767807007
-0.6298179626464844, -2.154697895050049, 0.2943851947784424, 0.1158163994550705
-0.774465799331665, -2.247713804244995, 0.28641772270202637, 0.07913009822368622
-0.14494507014751434, -2.2821555137634277, 0.3164483308792114, 0.22005584836006165
-0.052528541535139084, -2.3244619369506836, 0.31678441166877747, 0.10958882421255112
-0.08473756164312363, -2.5059893131256104, 0.3033883273601532, 0.3364812135696411
-0.08073684573173523, -2.6360409259796143, 0.28950461745262146, 0.3127428889274597
-0.21156981587409973, -2.708599328994751, 0.2740928828716278, 0.20190666615962982
-0.06265095621347427, -2.8220486640930176, 0.29821550846099854, 0.6914460062980652
-0.028746165335178375, -2.861391544342041, 0.3075038194656372, 0.1728195697069168
-0.12478221207857132, -3.0001091957092285, 0.31097137928009033, 0.14317505061626434
0.0505778044462204, -3.0774734020233154, 0.2918964922428131, 0.41064006090164185
0.11332796514034271, -3.0795159339904785, 0.3167558014392853, 0.3624165654182434
-0.02236056700348854, -3.0397908687591553, 0.30671173334121704, 0.2280402034521103
0.11020593345165253, -3.1394095420837402, 0.31556400656700134, 0.11235784739255905
-0.04584492743015289, -3.263990879058838, 0.3259398937225342, 0.17850489914417267
0.08539029955863953, -3.2425801753997803, 0.30330124497413635, 0.41246774792671204
0.08602610230445862, -3.320847272872925, 0.29466909170150757, 0.30475518107414246
0.1439373940229416, -3.1010265350341797, 0.32258737087249756, 0.3716246485710144
0.1567070037126541, -3.353572368621826, 0.2808111608028412, 0.2593008279800415
0.1763390302658081, -3.4209115505218506, 0.3049958348274231, 0.4530676603317261
0.07910411059856415, -3.389724016189575, 0.3293912410736084, 0.2013111114501953
-0.017589833587408066, -3.39682936668396, 0.28142452239990234, 0.4390355050563812
0.35200005769729614, -3.5930776596069336, 0.3322297930717468, 0.5802190899848938
0.02213837020099163, -3.6101503372192383, 0.3149935305118561, 0.25327959656715393
0.1321982443332672, -3.451521635055542, 0.30533623695373535, -0.014442447572946548
0.36384883522987366, -3.644906759262085, 0.31440332531929016, 0.3847736120223999
0.6480230093002319, -3.5456764698028564, 0.33868587017059326, 0.27528735995292664
0.10632584989070892, -3.4556941986083984, 0.32252827286720276, 0.2138473242521286
0.2398131936788559, -3.631762742996216, 0.3405613601207733, 0.2113340198993683
0.2986513376235962, -3.6110074520111084, 0.36324581503868103, 0.2937620282173157
0.1861589252948761, -3.532977342605591, 0.30658674240112305, 0.4583704471588135
0.07078362256288528, -3.5244815349578857, 0.31873083114624023, -0.047378428280353546
0.49508294463157654, -3.6967711448669434, 0.32602643966674805, 0.36828774213790894
0.2405184805393219, -3.6971538066864014, 0.32107099890708923, 0.10641239583492279
0.12569594383239746, -3.7011377811431885, 0.3124321699142456, 0.14296987652778625
0.3336336016654968, -3.7037105560302734, 0.31301620602607727, 0.316601425409317
0.2257569581270218, -3.7369964122772217, 0.31504106521606445, 0.2798846960067749
0.40654611587524414, -3.6773552894592285, 0.3441694378852844, 0.3115471601486206
0.03895888850092888, -3.680323600769043, 0.32275518774986267, 0.450438916683197
0.11499664932489395, -3.6721298694610596, 0.3484886884689331, 0.4198378324508667
0.2807866036891937, -3.562737464904785, 0.3121509253978729, 0.3284972906112671
0.4492800533771515, -3.6694400310516357, 0.32521507143974304, 0.32022297382354736
0.16129104793071747, -3.6367197036743164, 0.29557305574417114, 0.28874844312667847
0.233174666762352, -3.700809955596924, 0.31205570697784424, 0.20198547840118408
0.6312494874000549, -3.6779465675354004, 0.31050175428390503, 0.44007739424705505
0.10539371520280838, -3.5342044830322266, 0.31266042590141296, 0.22833427786827087
-0.0006916522979736328, -3.6082653999328613, 0.32165881991386414, -0.046917933970689774
0.1240348219871521, -3.6284663677215576, 0.3627834916114807, 0.24894505739212036
0.3496575951576233, -3.6857335567474365, 0.3439391255378723, 0.23724646866321564
0.13850300014019012, -3.590327501296997, 0.33364346623420715, 0.2288789600133896
0.2125040888786316, -3.5419692993164062, 0.30953168869018555, 0.13705962896347046
0.337589293718338, -3.620720624923706, 0.33511000871658325, 0.36298245191574097
0.3287784457206726, -3.4916460514068604, 0.344829797744751, 0.25744298100471497
0.23696093261241913, -3.6898481845855713, 0.32829418778419495, 0.30802345275878906
0.7904685735702515, -3.597621440887451, 0.3369860053062439, 0.17011038959026337
0.4184942841529846, -3.6380062103271484, 0.3427380323410034, 0.09705564379692078
0.04383049160242081, -3.5312695503234863, 0.35489344596862793, 0.4588192105293274
0.04123067855834961, -3.4152395725250244, 0.31755414605140686, 0.20114517211914062
0.8285195827484131, -3.6597352027893066, 0.33523398637771606, 0.2568311393260956
0.7442760467529297, -3.6154534816741943, 0.3182692229747772, 0.27360424399375916
0.4571319818496704, -3.485208749771118, 0.3228452801704407, 0.3456551730632782
0.4433714747428894, -3.565431833267212, 0.3576245903968811, 0.1409461498260498
0.25066208839416504, -3.616417169570923, 0.32230621576309204, 0.09644462913274765
0.5639227032661438, -3.597365140914917, 0.3278101980686188, -0.06688664853572845
0.20031090080738068, -3.5403430461883545, 0.31960004568099976, -0.014864753931760788
-0.036987148225307465, -3.3632922172546387, 0.3553653955459595, -0.011781543493270874
0.4509682059288025, -3.3531007766723633, 0.3250562250614166, 0.11981712281703949
-0.18732206523418427, -3.486027240753174, 0.3019936680793762, 0.45630428194999695
0.5996634364128113, -3.539334535598755, 0.36793333292007446, 0.39697152376174927
1.3020436763763428, -3.348937511444092, 0.34655439853668213, -0.022861242294311523
0.1557900756597519, -3.540346384048462, 0.34554845094680786, 0.26019996404647827
0.647153377532959, -3.541511058807373, 0.32317736744880676, 0.4520851969718933
0.5344464182853699, -3.3650808334350586, 0.30877527594566345, 0.2935464084148407
0.4435352683067322, -3.44771671295166, 0.36316418647766113, 0.22233931720256805
0.27289119362831116, -3.3063807487487793, 0.341365247964859, 0.2345505654811859
0.6499159336090088, -3.487377882003784, 0.2896864712238312, 0.24100856482982635
1.1750855445861816, -3.350893974304199, 0.3154311776161194, 0.3117046058177948
0.5156533122062683, -3.5170252323150635, 0.31233981251716614, 0.007755935192108154
0.23243401944637299, -3.514998435974121, 0.2849326431751251, 0.3458137810230255
0.3744145333766937, -3.443448305130005, 0.34790676832199097, 0.36681485176086426
0.42454254627227783, -3.4931695461273193, 0.32439133524894714, 0.37898358702659607
0.41509130597114563, -3.485790729522705, 0.3474283218383789, 0.3987434208393097
0.4730084538459778, -3.2857728004455566, 0.3371622562408447, 0.08945050835609436
0.7260081768035889, -3.4527125358581543, 0.35920605063438416, 0.31131595373153687
0.7957906126976013, -3.4812798500061035, 0.3555309474468231, 0.1387961208820343
0.13443687558174133, -3.4958086013793945, 0.3204927444458008, 0.12794797122478485
0.7205096483230591, -3.449281930923462, 0.3370698392391205, 0.4044455885887146
0.2625727951526642, -3.4724440574645996, 0.33821985125541687, 0.25166070461273193
0.437368780374527, -3.2833914756774902, 0.3578517735004425, 0.25793567299842834
0.9930235743522644, -3.4562954902648926, 0.3465227782726288, 0.46086904406547546
0.22881005704402924, -3.2388370037078857, 0.35283052921295166, 0.12644608318805695
0.5649443864822388, -3.4772887229919434, 0.3552702069282532, 0.1293843388557434
0.2509557008743286, -3.1555590629577637, 0.37192749977111816, 0.4631150960922241
0.20993098616600037, -3.4870829582214355, 0.3210996091365814, 0.24691782891750336
0.7290579080581665, -3.460909605026245, 0.3810535967350006, 0.20451399683952332
0.691564679145813, -3.4736826419830322, 0.34880855679512024, 0.4089774787425995
-0.01608603447675705, -3.2526965141296387, 0.343679279088974, 0.2650029957294464
0.6747738122940063, -3.313253402709961, 0.3358299136161804, 0.05687663331627846
0.5262367129325867, -3.4709198474884033, 0.32787561416625977, 0.2014634907245636
0.8753405213356018, -3.372194290161133, 0.3305034637451172, 0.4371255040168762
-0.31524696946144104, -3.3935399055480957, 0.33126935362815857, 0.06149199604988098
0.9404738545417786, -3.4983458518981934, 0.3269961178302765, 0.26490479707717896
0.4113048315048218, -3.4482507705688477, 0.37273597717285156, 0.1272924393415451
0.8807647824287415, -3.4355130195617676, 0.3425474166870117, 0.5092359185218811
0.37572959065437317, -3.5306241512298584, 0.36096644401550293, 0.3207677900791168
0.7706927061080933, -3.5693254470825195, 0.32605332136154175, 0.21816471219062805
0.7968518137931824, -3.339836835861206, 0.3010101318359375, 0.2178027629852295
0.3583311140537262, -3.5685479640960693, 0.33178865909576416, 0.21784698963165283
0.6925479769706726, -3.5876235961914062, 0.3088541626930237, 0.21799516677856445
0.7999578714370728, -3.5365476608276367, 0.3353559374809265, 0.21788716316223145
0.44621405005455017, -3.4031119346618652, 0.35497990250587463, 0.21823075413703918
0.6397544741630554, -3.5469837188720703, 0.32391446828842163, 0.21792197227478027
0.5805295705795288, -3.367462158203125, 0.358772337436676, 0.2179906666278839
0.803491473197937, -3.5729758739471436, 0.3175559639930725, 0.21799582242965698
0.5605995655059814, -3.5100088119506836, 0.34750795364379883, 0.21790945529937744
0.7776747941970825, -3.263148784637451, 0.31270989775657654, 0.2178879976272583
0.633278489112854, -3.5692214965820312, 0.33293405175209045, 0.2179046869277954
0.5380545258522034, -3.525040626525879, 0.324914813041687, 0.21819424629211426
0.8227851986885071, -3.5876235961914062, 0.3088541626930237, 0.21799582242965698
0.8549261689186096, -3.560764789581299, 0.3501158654689789, 0.2180778682231903
-0.5063272714614868, -3.507892608642578, 0.31934359669685364, 0.21820849180221558
0.6849677562713623, -3.5633625984191895, 0.32857322692871094, 0.2181573212146759
0.943101167678833, -3.5700721740722656, 0.33730947971343994, 0.21779197454452515
-0.14695511758327484, -3.5146360397338867, 0.3407490849494934, 0.218178391456604
0.6887043118476868, -3.39267897605896, 0.37315285205841064, 0.2180454134941101
0.7518926858901978, -3.6078834533691406, 0.31362995505332947, 0.21791395545005798
0.328598290681839, -3.5826709270477295, 0.3071938753128052, 0.21795520186424255
0.951203465461731, -3.5729758739471436, 0.3175559639930725, 0.21787774562835693
-0.0987185388803482, -3.466606378555298, 0.3505058288574219, 0.21817725896835327
0.8115230202674866, -3.513658046722412, 0.3290371000766754, 0.2180778682231903
0.5417341589927673, -3.573507785797119, 0.31308287382125854, 0.21816754341125488
0.6412324905395508, -3.506855010986328, 0.35517609119415283, 0.2181573212146759
0.6946424841880798, -3.5649731159210205, 0.33542126417160034, 0.2178080677986145
-0.0749034509062767, -3.3874714374542236, 0.31896379590034485, 0.21817725896835327
0.3344568908214569, -3.4822447299957275, 0.34893798828125, 0.21815508604049683
0.09335659444332123, -3.424539566040039, 0.3255884051322937, 0.21819931268692017
0.8158574104309082, -3.414437770843506, 0.34296587109565735, 0.21790021657943726
0.5885518789291382, -3.416729688644409, 0.3676603436470032, 0.2179906666278839
0.10960496962070465, -3.5906076431274414, 0.2962788939476013, 0.21819931268692017
0.8721945285797119, -3.5700721740722656, 0.33730947971343994, 0.2180454134941101
0.6804203987121582, -3.5797042846679688, 0.3061341941356659, 0.21791419386863708
0.0120614655315876, -3.583357810974121, 0.343642920255661, 0.21809566020965576
0.5999902486801147, -3.5654258728027344, 0.31896042823791504, 0.21800997853279114
0.25932565331459045, -3.3737263679504395, 0.36906909942626953, 0.2178013026714325
-0.4587583839893341, -3.52050518989563, 0.3368223309516907, 0.21813103556632996
0.12116536498069763, -3.336573600769043, 0.33407145738601685, 0.21790289878845215
-0.055794402956962585, -3.4030566215515137, 0.3430060148239136, 0.21817725896835327
0.609815239906311, -3.5247085094451904, 0.30777987837791443, 0.2179591953754425
0.22832323610782623, -3.591205596923828, 0.3246951699256897, 0.21780404448509216
-0.4915970265865326, -3.5227649211883545, 0.2636990547180176, 0.21838700771331787
0.7606552839279175, -3.4040722846984863, 0.360265851020813, 0.2180454134941101
0.4528671205043793, -3.5483815670013428, 0.35179802775382996, 0.21782097220420837
0.8701674938201904, -3.4625306129455566, 0.3340488076210022, 0.21787774562835693
1.142702579498291, -3.5476553440093994, 0.28047287464141846, 0.2180839478969574
0.5973522067070007, -3.471970558166504, 0.29657652974128723, 0.2178608775138855
0.5614609718322754, -3.356729507446289, 0.34951281547546387, 0.2179906666278839
0.39839601516723633, -3.5653605461120605, 0.34269264340400696, 0.2179792821407318
0.6601230502128601, -3.3491625785827637, 0.3184364140033722, 0.2178080677986145
0.5395165681838989, -3.400080442428589, 0.33678728342056274, 0.21800997853279114
0.6711382865905762, -3.367462158203125, 0.358772337436676, 0.2178080677986145
0.5042166709899902, -3.3639473915100098, 0.30706244707107544, 0.21790945529937744
-0.1512005627155304, -3.527139663696289, 0.3207106292247772, 0.21801400184631348
0.020354175940155983, -3.5592527389526367, 0.28674763441085815, 0.21798521280288696
0.11961248517036438, -3.5476553440093994, 0.28047287464141846, 0.21819931268692017
0.7544739246368408, -3.5909605026245117, 0.2932068109512329, 0.21784180402755737
0.2221241444349289, -3.51796817779541, 0.3525329828262329, 0.21780404448509216
0.8102375268936157, -3.562436103820801, 0.344747394323349, 0.21775978803634644
0.6858655214309692, -3.5692214965820312, 0.33293405175209045, 0.21799516677856445
0.9687274694442749, -3.5599498748779297, 0.31492507457733154, 0.21779197454452515
0.8417140245437622, -3.3280086517333984, 0.3176532983779907, 0.21787774562835693
0.8857054114341736, -3.5802907943725586, 0.32212918996810913, 0.21790897846221924
0.1897633820772171, -3.545111656188965, 0.35090792179107666, 0.2179868221282959
0.888615608215332, -3.4040722846984863, 0.360265851020813, 0.21779197454452515
0.6231890320777893, -3.5825767517089844, 0.2988521158695221, 0.2179591953754425
0.33400437235832214, -3.5046024322509766, 0.3335441052913666, 0.21793362498283386
0.970723032951355, -3.5811283588409424, 0.2993621826171875, 0.21779197454452515
-0.493007630109787, -3.5064949989318848, 0.33850669860839844, 0.21813103556632996
-0.4607416093349457, -3.484689474105835, 0.3511248528957367, 0.21820849180221558
0.5871067047119141, -3.572481155395508, 0.32297074794769287, 0.21790945529937744
0.590601921081543, -3.398040533065796, 0.3005935251712799, 0.21799048781394958
0.7013494968414307, -3.560274600982666, 0.3047899603843689, 0.21799516677856445
0.2455933541059494, -3.5876235961914062, 0.3088541626930237, 0.21819651126861572
0.2283226102590561, -3.560875415802002, 0.29492127895355225, 0.21780404448509216
0.5479953289031982, -3.5477895736694336, 0.3619754910469055, 0.21816754341125488
0.863699197769165, -3.477752208709717, 0.36165860295295715, 0.21790897846221924
0.5805951356887817, -3.5547733306884766, 0.3488600254058838, 0.21800997853279114
0.39976766705513, -3.5312232971191406, 0.3125615119934082, 0.2179792821407318
0.9294390082359314, -3.5593390464782715, 0.29227760434150696, 0.2178027629852295
0.6591792106628418, -3.578737735748291, 0.3326023519039154, 0.21786469221115112
0.8912641406059265, -3.441690444946289, 0.3375299572944641, 0.21787774562835693
0.33461788296699524, -3.538024425506592, 0.3647851049900055, 0.21808463335037231
0.6080363988876343, -3.513658046722412, 0.3290371000766754, 0.21799048781394958
0.908077597618103, -3.551116943359375, 0.32174748182296753, 0.21790897846221924
0.8164122104644775, -3.5829548835754395, 0.31716471910476685, 0.21788716316223145
0.6696171760559082, -3.558023452758789, 0.3261977434158325, 0.21791419386863708
0.3233308494091034, -3.558023452758789, 0.3261977434158325, 0.21808463335037231
0.7670713067054749, -3.559762954711914, 0.3279251456260681, 0.21816471219062805
0.8535190224647522, -3.527364492416382, 0.35430967807769775, 0.21790021657943726
0.6779718995094299, -3.5829548835754395, 0.31716471910476685, 0.21794122457504272
0.20814217627048492, -3.387113094329834, 0.36006492376327515, 0.21780404448509216
0.5607198476791382, -3.555283546447754, 0.35029101371765137, 0.21790945529937744
0.677078366279602, -3.5623960494995117, 0.3171088993549347, 0.21786469221115112
1.122809648513794, -3.5593390464782715, 0.29227760434150696, 0.2180839478969574
1.126090407371521, -3.574036121368408, 0.28887248039245605, 0.21791455149650574
-0.1471252739429474, -3.563246250152588, 0.3476671576499939, 0.218178391456604
0.6888017058372498, -3.5608553886413574, 0.3229602575302124, 0.21791419386863708
0.9550381898880005, -3.5624828338623047, 0.3251458406448364, 0.218068927526474
0.6910145282745361, -3.55389666557312, 0.33999761939048767, 0.2181573212146759
-0.1263904571533203, -3.5170135498046875, 0.3049829602241516, 0.21817725896835327
0.7888584136962891, -3.5658581256866455, 0.32871532440185547, 0.21798071265220642
0.32819750905036926, -3.562436103820801, 0.344747394323349, 0.2178013026714325
0.1829163283109665, -3.517642021179199, 0.29852619767189026, 0.2179868221282959
-0.1752839833498001, -3.5004358291625977, 0.3724087178707123, 0.21801400184631348
-0.46634888648986816, -3.5402770042419434, 0.3465823531150818, 0.21838700771331787
0.739088773727417, -3.3344011306762695, 0.3584866523742676, 0.21775978803634644
0.6645520329475403, -3.4030566215515137, 0.3430060148239136, 0.2178080677986145
-0.15738777816295624, -3.503842353820801, 0.3339831233024597, 0.218178391456604
0.8330069780349731, -3.5608553886413574, 0.3229602575302124, 0.2179185450077057
0.2379315197467804, -3.6096625328063965, 0.3392307162284851, 0.21780404448509216
0.5729628801345825, -3.4491820335388184, 0.35174062848091125, 0.21778106689453125
0.5591472387313843, -3.5146360397338867, 0.3407490849494934, 0.2178608775138855
0.8052853941917419, -3.5100088119506836, 0.34750795364379883, 0.21799582242965698
0.2852179706096649, -3.4491820335388184, 0.35174062848091125, 0.21795520186424255
0.5198918581008911, -3.3743984699249268, 0.3496532142162323, 0.21790945529937744
-0.07572254538536072, -3.3323264122009277, 0.34223514795303345, 0.21817725896835327
0.5508676171302795, -3.6079530715942383, 0.3190368413925171, 0.21819424629211426
0.7307931184768677, -3.466606378555298, 0.3505058288574219, 0.21789142489433289
0.32690587639808655, -3.392366409301758, 0.31059277057647705, 0.21815508604049683
0.6055777072906494, -3.5710418224334717, 0.3375208377838135, 0.21817582845687866
0.7219264507293701, -3.346245288848877, 0.3316732347011566, 0.21789142489433289
0.6250998973846436, -3.5725951194763184, 0.3121623992919922, 0.21799048781394958
0.7951667308807373, -3.5650980472564697, 0.33275073766708374, 0.21775978803634644
0.5529499053955078, -3.5354409217834473, 0.3202296197414398, 0.21816754341125488
0.334961861371994, -3.5563395023345947, 0.3423144221305847, 0.21793362498283386
-0.46437233686447144, -3.5843424797058105, 0.30926334857940674, 0.21820849180221558
0.5232993364334106, -3.250218391418457, 0.3850996196269989, 0.21816754341125488
0.6725426912307739, -3.575897693634033, 0.32050734758377075, 0.2179906666278839
0.9543918371200562, -3.59165620803833, 0.34086528420448303, 0.218068927526474
0.09738026559352875, -3.525782585144043, 0.37332502007484436, 0.21819931268692017
0.22411619126796722, -3.572481155395508, 0.32297074794769287, 0.2181403636932373
0.31515398621559143, -3.581085205078125, 0.31807249784469604, 0.21808463335037231
0.21873067319393158, -3.5766971111297607, 0.29172271490097046, 0.2181403636932373
0.5577114820480347, -3.5798258781433105, 0.34550926089286804, 0.21819424629211426
0.2255425900220871, -3.5227649211883545, 0.26370716094970703, 0.21790283918380737
0.10360200703144073, -3.5837783813476562, 0.36171215772628784, 0.21819931268692017
0.5550600290298462, -3.3479418754577637, 0.35056284070014954, 0.21817582845687866
1.1634345054626465, -3.512916088104248, 0.29439908266067505, 0.21771365404129028
0.7679165601730347, -3.336573600769043, 0.33407145738601685, 0.2178027629852295
-0.004688791930675507, -3.5664708614349365, 0.32956570386886597, 0.21809566020965576
0.5639488101005554, -3.4557647705078125, 0.3781318962574005, 0.21778106689453125
-0.1254187971353531, -3.3400845527648926, 0.3734153211116791, 0.21826142072677612
0.09607158601284027, -3.367976188659668, 0.3442486524581909, 0.21819931268692017
0.3245239555835724, -3.5685806274414062, 0.3113132119178772, 0.21795520186424255
0.22368188202381134, -3.3420157432556152, 0.3215993642807007, 0.2181403636932373
0.9082720875740051, -3.5718984603881836, 0.31746989488601685, 0.21790897846221924
0.8267488479614258, -3.5619120597839355, 0.33323824405670166, 0.21775978803634644
1.1076711416244507, -3.5792744159698486, 0.3028169572353363, 0.21791455149650574
1.0256175994873047, -3.327704429626465, 0.37888848781585693, 0.21771365404129028
0.22701002657413483, -3.484689474105835, 0.3511248528957367, 0.21780404448509216
0.8144996166229248, -3.533700942993164, 0.36161381006240845, 0.2180454134941101
0.18077772855758667, -3.533432960510254, 0.2950901985168457, 0.2179868221282959
0.7623330950737, -3.5813355445861816, 0.3239288926124573, 0.21816471219062805
0.3298756778240204, -3.5477895736694336, 0.3619754910469055, 0.2178013026714325
0.6159150004386902, -3.4040722846984863, 0.360265851020813, 0.21791419386863708
0.22539980709552765, -3.5798258781433105, 0.34550926089286804, 0.2181403636932373
0.33432328701019287, -3.5709078311920166, 0.2981477677822113, 0.21795520186424255
0.6071977615356445, -3.601327896118164, 0.3314288258552551, 0.2179591953754425
0.3182700276374817, -3.5004358291625977, 0.3724087178707123, 0.2178013026714325
0.30344828963279724, -3.5434718132019043, 0.34854656457901, 0.21808463335037231
0.2177221179008484, -3.377546787261963, 0.32405292987823486, 0.2181403636932373
0.32738956809043884, -3.54045033454895, 0.2884659469127655, 0.21795520186424255
-0.15734098851680756, -3.4358625411987305, 0.3369101881980896, 0.21801400184631348
-0.4207104444503784, -3.4477579593658447, 0.36983421444892883, 0.21813103556632996
0.6304110288619995, -3.56683087348938, 0.327127605676651, 0.21792197227478027
0.7379385232925415, -3.3429603576660156, 0.3603227734565735, 0.21799582242965698
0.33301421999931335, -3.5064949989318848, 0.33850669860839844, 0.21793362498283386
0.01097973994910717, -3.5592236518859863, 0.32880228757858276, 0.21798521280288696
-0.15382441878318787, -3.5365476608276367, 0.3353559374809265, 0.21826142072677612
0.31854191422462463, -3.409822940826416, 0.3313777446746826, 0.21795517206192017
1.1642355918884277, -3.4763832092285156, 0.329359769821167, 0.327682763338089
0.871208906173706, -3.5453431606292725, 0.3647219240665436, 0.010890934616327286
0.7488378882408142, -3.2644503116607666, 0.33367130160331726, 0.4213161766529083
0.6139339208602905, -3.4833667278289795, 0.3602055609226227, 0.6289032101631165
0.3416658937931061, -3.491440773010254, 0.3135725259780884, 0.08492453396320343
0.31605321168899536, -3.4867868423461914, 0.32894808053970337, 0.04723078012466431
0.42431801557540894, -3.224249839782715, 0.34033510088920593, 0.24034512042999268
0.8498499989509583, -3.202746868133545, 0.36624252796173096, 0.36414843797683716
-0.21569502353668213, -3.2830684185028076, 0.31959375739097595, 0.18364053964614868
0.2159745693206787, -3.539048671722412, 0.29514753818511963, 0.37993818521499634
0.2201937735080719, -3.3800160884857178, 0.3302178382873535, 0.5344488024711609
0.5966556072235107, -3.4933927059173584, 0.3055889904499054, 0.45529523491859436
0.878548800945282, -3.5085859298706055, 0.31325918436050415, 0.19198572635650635
0.627586841583252, -3.45517635345459, 0.34339824318885803, 0.4073101282119751
-0.27154386043548584, -3.4082486629486084, 0.36154407262802124, 0.15613014996051788
-0.12474849075078964, -3.3825325965881348, 0.3442118763923645, -0.1120491772890091
0.1691901981830597, -3.454561233520508, 0.3080533444881439, 0.4678666889667511
-0.3923490345478058, -3.4242894649505615, 0.33186042308807373, 0.36933788657188416
-0.9456331133842468, -3.203237295150757, 0.3652137815952301, 0.10630978643894196
0.4835731089115143, -3.416142463684082, 0.33405011892318726, 0.19471144676208496
0.5267629027366638, -3.2248854637145996, 0.31493714451789856, 0.25429660081863403
0.5072758197784424, -3.359689235687256, 0.37007397413253784, 0.07274585962295532
1.2120712995529175, -3.334200382232666, 0.3727268874645233, 0.29269787669181824
0.5203156471252441, -3.3317246437072754, 0.4045082628726959, 0.5306895971298218
0.912972629070282, -3.328425884246826, 0.3531816899776459, 0.4794735610485077
-0.2519562542438507, -3.0626115798950195, 0.3106597661972046, 0.15031050145626068
-0.4916766881942749, -3.327559471130371, 0.37167850136756897, 0.13712798058986664
0.8644247651100159, -3.4492623805999756, 0.32131487131118774, 0.24207846820354462
0.6207533478736877, -3.1456987857818604, 0.36816883087158203, 0.20571400225162506
0.1299976259469986, -3.3387343883514404, 0.3221208453178406, 0.10376593470573425
0.6615094542503357, -3.3079144954681396, 0.3606424331665039, 0.29946058988571167
-1.7732434272766113, -3.33294677734375, 0.35856956243515015, 0.3013802468776703
0.9248547554016113, -3.265939950942993, 0.3318900167942047, 0.3983898162841797
1.0130105018615723, -3.3119451999664307, 0.3203098177909851, 0.35227692127227783
0.4600512981414795, -3.317298650741577, 0.35293829441070557, 0.36507469415664673
0.6474407315254211, -3.265594005584717, 0.35466817021369934, 0.38359498977661133
0.6408441066741943, -3.293757438659668, 0.32033759355545044, 0.10795257240533829
-0.41653892397880554, -3.267167806625366, 0.34927982091903687, 0.2695541977882385
0.578396201133728, -3.264103412628174, 0.3521045446395874, 0.6168854236602783
0.43582966923713684, -3.0859291553497314, 0.3291131258010864, 0.22374913096427917
0.5884125828742981, -3.234785318374634, 0.3479281961917877, 0.07934798300266266
0.6592068076133728, -3.3661131858825684, 0.3551124930381775, 0.25424060225486755
0.6032991409301758, -3.3862011432647705, 0.3174940049648285, 0.3580476939678192
0.5108053088188171, -3.4064693450927734, 0.32632964849472046, 0.3714376389980316
0.6151713132858276, -3.3968448638916016, 0.3477209508419037, 0.40733644366264343
0.49516618251800537, -3.1299424171447754, 0.31767430901527405, 0.16635246574878693
-0.9880593419075012, -3.3801028728485107, 0.33493325114250183, 0.11116787046194077
0.47608259320259094, -3.2137792110443115, 0.308755487203598, 0.190042644739151
-0.2719348967075348, -3.4393603801727295, 0.3859734535217285, 0.20843301713466644
0.780764102935791, -3.2380354404449463, 0.36114299297332764, 0.49923232197761536
0.4327952563762665, -3.2018258571624756, 0.3715956509113312, -0.0007767826318740845
0.4486703872680664, -3.3266000747680664, 0.3609824478626251, 0.328247606754303
0.5734441876411438, -3.522531747817993, 0.34746482968330383, 0.24658077955245972
0.45382604002952576, -3.3797197341918945, 0.36472252011299133, 0.11341340839862823
0.14205966889858246, -3.19059157371521, 0.3132054805755615, 0.24582837522029877
0.5808854103088379, -3.233938694000244, 0.38808709383010864, 0.21177372336387634
-0.4193742871284485, -3.404090642929077, 0.40290728211402893, 0.2789950966835022
0.3055422008037567, -3.236318349838257, 0.3577362596988678, 0.4377879500389099
0.05812518671154976, -3.5712692737579346, 0.3203921914100647, 0.408945769071579
0.5892150402069092, -3.4715447425842285, 0.35243335366249084, 0.3050682842731476
0.28916221857070923, -3.1607613563537598, 0.3722783327102661, 0.30374836921691895
0.5451043844223022, -3.4568281173706055, 0.3560570478439331, 0.07587350904941559
1.030879259109497, -3.4408226013183594, 0.36075565218925476, 0.3119264841079712
0.5782820582389832, -3.446162462234497, 0.3297601342201233, 0.11565932631492615
-1.0153396129608154, -3.448650598526001, 0.33200666308403015, 0.09178577363491058
0.42786961793899536, -3.468993663787842, 0.3657185435295105, 0.29426586627960205
0.35865867137908936, -3.3514719009399414, 0.35696667432785034, 0.34273725748062134
0.341553658246994, -3.1639304161071777, 0.39517635107040405, 0.3899889588356018
0.19592998921871185, -3.4616949558258057, 0.3393900394439697, 0.3292802572250366
0.5454418659210205, -3.3467600345611572, 0.38431867957115173, 0.40887606143951416
-0.4120301306247711, -3.438781261444092, 0.3559728264808655, 0.11161811649799347
0.2535320222377777, -3.5200588703155518, 0.3547201454639435, 0.5347095727920532
0.5472597479820251, -3.5648531913757324, 0.3252050578594208, 0.20201291143894196
-1.8638837337493896, -3.5773515701293945, 0.3075580894947052, 0.24272307753562927
-0.4183026850223541, -3.373483657836914, 0.3592348098754883, 0.1364181488752365
-0.5494334101676941, -3.600839138031006, 0.3140847980976105, 0.11433421075344086
0.28231313824653625, -3.551523208618164, 0.33529019355773926, 0.26040738821029663
0.010918392799794674, -3.6250500679016113, 0.32854926586151123, 0.3184632360935211
0.30681130290031433, -3.2670013904571533, 0.39124107360839844, 0.5104779601097107
0.6639018654823303, -3.389829158782959, 0.3780444264411926, 0.2904471755027771
0.5767433643341064, -3.571195363998413, 0.3535342812538147, 0.30697622895240784
0.5422084927558899, -3.616360902786255, 0.3590962290763855, 0.13475453853607178
0.6028348803520203, -3.3624720573425293, 0.38212600350379944, 0.10906239598989487
0.4375728964805603, -3.6826488971710205, 0.3265498876571655, 0.32970622181892395
0.4794532060623169, -3.5431277751922607, 0.3764301538467407, 0.18634548783302307
0.5073549151420593, -3.668821334838867, 0.3272913098335266, 0.4488735795021057
0.3876609206199646, -3.4204413890838623, 0.3916269838809967, 0.08897143602371216
0.46867117285728455, -3.682492971420288, 0.31804558634757996, 0.23259243369102478
0.35844793915748596, -3.314985752105713, 0.35884347558021545, -0.12661828100681305
0.38605284690856934, -3.68911075592041, 0.3297134339809418, 0.4643937349319458
-0.23164032399654388, -3.700936794281006, 0.31145238876342773, 0.41492539644241333
0.8287689089775085, -3.6429429054260254, 0.3797302842140198, 0.31464684009552
-0.8545125722885132, -3.6444053649902344, 0.36809128522872925, 0.23229344189167023
0.8837111592292786, -3.552717447280884, 0.4068453013896942, 0.4922488331794739
0.12411487102508545, -3.249392032623291, 0.399120569229126, 0.3429255485534668
0.5105279684066772, -3.470559597015381, 0.4120948910713196, 0.34335389733314514
0.7991175055503845, -3.6362290382385254, 0.32573720812797546, 0.26453304290771484
0.8391143083572388, -3.613966226577759, 0.38854092359542847, 0.33559057116508484
0.28166961669921875, -3.629359245300293, 0.32721638679504395, 0.41596534848213196
-0.31061530113220215, -3.5870890617370605, 0.3905720114707947, 0.4666830003261566
0.10244007408618927, -3.3372089862823486, 0.38330647349357605, 0.11493676155805588
0.574332594871521, -3.609388589859009, 0.3508906066417694, 0.10555323213338852
-0.21289974451065063, -3.2289721965789795, 0.40872716903686523, 0.35373973846435547
0.5713237524032593, -3.501896619796753, 0.3856498599052429, 0.309945285320282
0.01616993173956871, -3.550922393798828, 0.396369069814682, 0.05494607612490654
0.3540205955505371, -3.704143524169922, 0.33707553148269653, 0.09275432676076889
0.3980174660682678, -3.628333806991577, 0.3717469274997711, 0.3591693639755249
-0.6349161267280579, -3.319932699203491, 0.4157402813434601, 0.33306342363357544
0.0935538113117218, -3.678150177001953, 0.3832685947418213, 0.27434268593788147
0.36638304591178894, -3.6298952102661133, 0.3665551245212555, 0.047918401658535004
0.8045065999031067, -3.4451100826263428, 0.37857091426849365, 0.32512474060058594
0.0880170688033104, -3.722043752670288, 0.3826959431171417, 0.5197950601577759
-0.1853875070810318, -3.650780200958252, 0.39637890458106995, 0.1867149919271469
0.7388753294944763, -3.6261041164398193, 0.38781118392944336, 0.08212417364120483
0.41991546750068665, -3.261251449584961, 0.41496777534484863, 0.48914676904678345
0.061881668865680695, -3.4578804969787598, 0.36256325244903564, 0.2152266800403595
-0.1264180988073349, -3.6336426734924316, 0.403350293636322, 0.35088056325912476
-0.8009063005447388, -3.494816780090332, 0.46521544456481934, 0.26841312646865845
0.9542267322540283, -3.6750454902648926, 0.3841824531555176, 0.3367055356502533
0.6390235424041748, -3.290287971496582, 0.42322060465812683, 0.22275009751319885
-0.14377740025520325, -3.7248916625976562, 0.36066749691963196, 0.4660087823867798
-2.100633144378662, -3.3461639881134033, 0.3560800850391388, 0.5366201996803284
0.7551206350326538, -3.709944009780884, 0.39390623569488525, 0.2896087169647217
0.6628044247627258, -3.7328433990478516, 0.3852134644985199, 0.31981751322746277
0.28583818674087524, -3.8409669399261475, 0.36164945363998413, 0.5206860899925232
0.41514852643013, -3.7852373123168945, 0.3614060580730438, 0.2673659026622772
0.43009915947914124, -3.4729812145233154, 0.42127901315689087, 0.5592937469482422
0.6592991948127747, -3.876507520675659, 0.37090352177619934, 0.25145360827445984
0.6236680150032043, -3.6610324382781982, 0.43280187249183655, 0.4105459749698639
1.145707368850708, -3.6721291542053223, 0.4093986451625824, 0.12165230512619019
0.9169321656227112, -3.7973079681396484, 0.3982190787792206, 0.1624613255262375
0.26593974232673645, -3.908262014389038, 0.38044968247413635, 0.39459630846977234
-0.058142539113759995, -3.912907838821411, 0.32643750309944153, 0.3165299594402313
0.5293557643890381, -3.6846120357513428, 0.40048879384994507, 0.8508052825927734
-0.2289930135011673, -3.858090877532959, 0.39181268215179443, 0.27139168977737427
0.4433131515979767, -3.4749701023101807, 0.38585391640663147, 0.09830372780561447
0.18868844211101532, -3.653982639312744, 0.4167555570602417, 0.10411959141492844
0.45644935965538025, -3.6147100925445557, 0.44633999466896057, 0.30844634771347046
0.5163133144378662, -3.4283835887908936, 0.4532082676887512, 0.16147999465465546
0.40519779920578003, -3.810819149017334, 0.3617846965789795, 0.23768508434295654
0.334860235452652, -3.619718313217163, 0.4133307933807373, 0.2374730110168457
0.5708292126655579, -3.6923208236694336, 0.43920260667800903, 0.23748260736465454
0.7362312078475952, -3.7760331630706787, 0.39405113458633423, 0.23842880129814148
-1.1060340404510498, -3.7458748817443848, 0.386933296918869, 0.2384064793586731
0.5476518869400024, -3.8181650638580322, 0.320703387260437, 0.23842474818229675
0.3063339293003082, -3.771209716796875, 0.3862609565258026, 0.2374730110168457
0.25736287236213684, -3.7933573722839355, 0.34375470876693726, 0.23761209845542908
-0.03207649290561676, -3.4125094413757324, 0.323272705078125, 0.23742705583572388
-1.0606019496917725, -3.82197642326355, 0.3794286847114563, 0.2383333444595337
0.31567683815956116, -3.515176296234131, 0.4015340805053711, 0.23791611194610596
-0.4467495381832123, -3.7518391609191895, 0.39890190958976746, 0.23787173628807068
-0.7224206924438477, -3.6923208236694336, 0.43920260667800903, 0.23760470747947693
0.33768779039382935, -3.7792325019836426, 0.370458722114563, 0.2380039095878601
0.3078245222568512, -3.748671054840088, 0.4309679865837097, 0.2382378876209259
-0.3897398114204407, -3.4182896614074707, 0.3282366394996643, 0.23770713806152344
0.19372159242630005, -3.4143481254577637, 0.38185951113700867, 0.23816534876823425
0.3724786341190338, -3.7030749320983887, 0.3879316449165344, 0.2382378876209259
-0.7765997052192688, -3.8114829063415527, 0.39117005467414856, 0.23760470747947693
0.45383819937705994, -3.8232264518737793, 0.3528910279273987, 0.2379661500453949
0.4393526315689087, -3.7105722427368164, 0.41954100131988525, 0.23789972066879272
0.3529999554157257, -3.323904514312744, 0.4623180031776428, 0.23765045404434204
-0.13287852704524994, -3.329808235168457, 0.46019434928894043, 0.23742705583572388
0.3945302665233612, -3.8114829063415527, 0.39117005467414856, 0.23768508434295654
0.480050653219223, -3.713001251220703, 0.4026589095592499, 0.23777103424072266
-0.03994108736515045, -3.830688714981079, 0.4169277846813202, 0.23726409673690796
0.2721512019634247, -3.748671054840088, 0.4309679865837097, 0.23837697505950928
0.567635178565979, -3.683533191680908, 0.45187902450561523, 0.23802345991134644
0.07223953306674957, -3.4589405059814453, 0.429569810628891, 0.23793941736221313
0.4182122051715851, -3.292840003967285, 0.3598032593727112, 0.23776066303253174
0.5232310891151428, -3.55363130569458, 0.47684037685394287, 0.23789972066879272
0.3074774444103241, -3.6923208236694336, 0.43920260667800903, 0.2374730110168457
-0.36036524176597595, -3.7869598865509033, 0.3964243531227112, 0.23823413252830505
-1.0067956447601318, -3.432864189147949, 0.35464051365852356, 0.2383333444595337
0.33746063709259033, -3.7574853897094727, 0.3838716149330139, 0.23779815435409546
-0.9356533885002136, -3.7574853897094727, 0.3838716149330139, 0.2379785180091858
0.32303446531295776, -3.666379928588867, 0.4040175676345825, 0.2374730110168457
0.5163815021514893, -3.3310160636901855, 0.4104360342025757, 0.23819437623023987
0.4864320755004883, -3.718778133392334, 0.3551126718521118, 0.237648606300354
-0.530686616897583, -3.204451560974121, 0.5453102588653564, 0.2385382354259491
0.07456817477941513, -3.610093593597412, 0.37781867384910583, 0.23813346028327942
-0.7686542868614197, -3.767500400543213, 0.3850652277469635, 0.23760470747947693
0.19656218588352203, -3.3499560356140137, 0.41501301527023315, 0.2379053235054016
0.4008066952228546, -3.3499560356140137, 0.41501301527023315, 0.23765045404434204
0.515002429485321, -3.702704906463623, 0.4235698878765106, 0.23833483457565308
0.23588387668132782, -3.6919140815734863, 0.38675880432128906, 0.2379053235054016
0.44946402311325073, -3.6664514541625977, 0.4212537407875061, 0.2376273274421692
0.48804599046707153, -3.792415142059326, 0.35171568393707275, 0.23777103424072266
0.3238789737224579, -3.3584375381469727, 0.47336357831954956, 0.2379661500453949
-0.20552530884742737, -3.667569160461426, 0.3647306561470032, 0.23823413252830505
0.48734354972839355, -3.534848690032959, 0.4967706799507141, 0.23809665441513062
0.2999321222305298, -3.534848690032959, 0.4967706799507141, 0.23776066303253174
0.7654929161071777, -3.7312283515930176, 0.3984214663505554, 0.23744606971740723
0.3649207353591919, -3.7700414657592773, 0.3660498857498169, 0.2380039095878601
0.5716022849082947, -3.4143359661102295, 0.340684175491333, 0.23725444078445435
0.16950668394565582, -3.7760331630706787, 0.39405113458633423, 0.23816534876823425
0.24941042065620422, -3.753610610961914, 0.38497084379196167, 0.23837697505950928
0.5518181920051575, -3.832606315612793, 0.36700916290283203, 0.23844373226165771
0.48663991689682007, -3.8298277854919434, 0.35923850536346436, 0.23777103424072266
0.28526052832603455, -3.716034173965454, 0.3808462619781494, 0.23791611194610596
0.40742799639701843, -3.807318687438965, 0.3466666340827942, 0.237648606300354
0.5230647921562195, -3.702704906463623, 0.4235698878765106, 0.237648606300354
0.6584340333938599, -3.5603137016296387, 0.38028961420059204, 0.23744556307792664
-0.8129586577415466, -3.829071283340454, 0.34221673011779785, 0.23807454109191895
0.5119907259941101, -3.8467044830322266, 0.33573633432388306, 0.23748260736465454
0.5219317078590393, -3.7972445487976074, 0.3964856266975403, 0.23819366097450256
-1.2184120416641235, -3.692305564880371, 0.5346022248268127, 0.2383333444595337
-0.5831778645515442, -3.763943672180176, 0.4143669605255127, 0.23770713806152344
-0.6665816307067871, -3.4368762969970703, 0.3846711218357086, 0.23760470747947693
0.14026623964309692, -3.5273096561431885, 0.4501725435256958, 0.2379053235054016
0.5647748708724976, -3.7970285415649414, 0.428172767162323, 0.23744556307792664
0.029060717672109604, -3.8195135593414307, 0.3475271165370941, 0.23813346028327942
0.43229803442955017, -3.8316023349761963, 0.3414129316806793, 0.2376273274421692
0.7602248787879944, -3.369241237640381, 0.35765740275382996, 0.23842880129814148
0.48735663294792175, -3.818739414215088, 0.3491520881652832, 0.23844373226165771
-0.42886438965797424, -3.7963240146636963, 0.35591450333595276, 0.23770713806152344
0.5866913199424744, -3.7761192321777344, 0.33591127395629883, 0.23744556307792664
0.5341847538948059, -3.805751323699951, 0.328361451625824, 0.23842474818229675
-0.21661880612373352, -3.3301243782043457, 0.3665061593055725, 0.23863095045089722
0.512147068977356, -3.3889944553375244, 0.4377672076225281, 0.23809665441513062
0.649865984916687, -3.826012134552002, 0.3692108988761902, 0.23802345991134644
-0.9436304569244385, -3.6830081939697266, 0.45136427879333496, 0.23807454109191895
0.5470151305198669, -3.370630979537964, 0.4517784118652344, 0.23850375413894653
0.4333832263946533, -3.7797396183013916, 0.3807317018508911, 0.23779815435409546
0.5252478718757629, -3.4437522888183594, 0.4193287491798401, 0.23833483457565308
-0.060194626450538635, -3.468214511871338, 0.45870494842529297, 0.23793941736221313
0.7943933010101318, -3.6869239807128906, 0.37434321641921997, 0.23788604140281677
-0.7390763759613037, -3.702704906463623, 0.4235698878765106, 0.23760470747947693
0.2587296664714813, -3.761486768722534, 0.3953205943107605, 0.23865154385566711
0.40846195816993713, -3.7700705528259277, 0.32130125164985657, 0.23833483457565308
0.10606050491333008, -3.6540753841400146, 0.4418272078037262, 0.23816534876823425
0.6792582869529724, -3.6991121768951416, 0.3808164596557617, 0.23793047666549683
0.3403608798980713, -3.6150715351104736, 0.3987388014793396, 0.23818981647491455
0.48638707399368286, -3.732142448425293, 0.4073260426521301, 0.23833483457565308
0.756308376789093, -3.4321930408477783, 0.39843225479125977, 0.23788604140281677
0.3264786899089813, -3.3604061603546143, 0.4626668691635132, 0.23777103424072266
0.5418200492858887, -3.805751323699951, 0.328361451625824, 0.2374609410762787
0.4147985875606537, -3.8376917839050293, 0.4016362428665161, 0.23777103424072266
0.6233347654342651, -3.7492825984954834, 0.38559389114379883, 0.23819437623023987
0.312593549489975, -3.7352871894836426, 0.410373717546463, 0.2374730110168457
-0.9982495903968811, -3.7608370780944824, 0.3909614086151123, 0.2383333444595337
0.6926589012145996, -3.34309983253479, 0.4372250735759735, 0.23744606971740723
0.5722023844718933, -3.725119113922119, 0.40480154752731323, 0.2374609410762787
-0.9293367266654968, -3.3499560356140137, 0.41501301527023315, 0.2383333444595337
-0.5414044857025146, -3.764772653579712, 0.3829435706138611, 0.23770713806152344
0.39892351627349854, -3.2794065475463867, 0.4959021806716919, 0.2374919354915619
0.4019034206867218, -3.619889259338379, 0.4327818751335144, 0.23768508434295654
-2.201354503631592, -3.7179665565490723, 0.3982315957546234, 0.2381981611251831
0.530918538570404, -3.535203695297241, 0.49417567253112793, 0.23819437623023987
-0.5371793508529663, -3.8716626167297363, 0.31070974469184875, 0.23770713806152344
-0.5450520515441895, -3.809847831726074, 0.35995498299598694, 0.23770713806152344
0.2420075386762619, -3.459817409515381, 0.3346826136112213, 0.23779457807540894
-0.10260845720767975, -3.414062738418579, 0.4162524342536926, 0.23742705583572388
0.37644967436790466, -3.6991121768951416, 0.3808164596557617, 0.23749816417694092
-1.0915873050689697, -3.8013577461242676, 0.3575272262096405, 0.2384064793586731
-1.1140079498291016, -3.547895908355713, 0.4046638607978821, 0.2384064793586731
-0.4263337552547455, -3.6923208236694336, 0.43920260667800903, 0.23787173628807068
-2.0086777210235596, -3.806596040725708, 0.32823723554611206, 0.23806989192962646
-0.41592761874198914, -3.6788840293884277, 0.4101780652999878, 0.23787173628807068
0.5066120624542236, -3.7491774559020996, 0.40474554896354675, 0.23833483457565308
0.6120471358299255, -3.7518391609191895, 0.39890190958976746, 0.23801448941230774
0.7190857529640198, -3.669922113418579, 0.38230589032173157, 0.23819437623023987
0.4203522503376007, -3.7265236377716064, 0.4572514295578003, 0.23809665441513062
0.24022135138511658, -3.728976011276245, 0.3969759941101074, 0.2379053235054016
0.5994278192520142, -3.81376576423645, 0.3643577992916107, 0.23744556307792664
0.5473951697349548, -3.829071283340454, 0.34221673011779785, 0.2373487949371338
0.6101931929588318, -3.830688714981079, 0.4169277846813202, 0.23802345991134644
0.4564613401889801, -3.7792325019836426, 0.370458722114563, 0.23725444078445435
0.35561370849609375, -3.2959487438201904, 0.47812509536743164, 0.2376273274421692
-1.9357635974884033, -3.400468111038208, 0.39687904715538025, 0.23806989192962646
0.5117109417915344, -3.7726097106933594, 0.39681848883628845, 0.23842474818229675
0.39004889130592346, -3.4050557613372803, 0.3697406053543091, 0.23779815435409546
-0.733667254447937, -3.427449941635132, 0.3644404411315918, 0.2379785180091858
0.4246200621128082, -3.804020643234253, 0.33199894428253174, 0.237648606300354
-0.16984859108924866, -3.447415351867676, 0.4135778248310089, 0.2385382354259491
0.4989719092845917, -3.8006439208984375, 0.363112211227417, 0.23748260736465454
0.6870183348655701, -3.702704906463623, 0.4235698878765106, 0.23793047666549683
0.570613443851471, -3.737245559692383, 0.38382890820503235, 0.23809665441513062
0.7105799913406372, -3.6871747970581055, 0.4252399802207947, 0.23802343010902405
0.6810470819473267, -3.3955211639404297, 0.48803067207336426, 0.23744606971740723
0.4593605697154999, -3.762324094772339, 0.36492443084716797, 0.2379661500453949
0.2623622715473175, -3.7928218841552734, 0.3796844184398651, 0.2374730110168457
0.5099999308586121, -3.598958730697632, 0.3960368037223816, 0.23725444078445435
0.6717935800552368, -3.8395729064941406, 0.3805862069129944, 0.23802345991134644
-0.6941900849342346, -3.447415351867676, 0.4135778248310089, 0.23807454109191895
-0.9396817684173584, -3.447415351867676, 0.4135778248310089, 0.2384064793586731
0.43419986963272095, -3.7142839431762695, 0.39283233880996704, 0.23749816417694092
-0.4031670391559601, -3.8429017066955566, 0.32471340894699097, 0.23787173628807068
0.49126073718070984, -3.7093329429626465, 0.40499478578567505, 0.23850375413894653
0.2269797921180725, -3.8014774322509766, 0.35121026635169983, 0.23791611194610596
0.571749746799469, -3.4589405059814453, 0.429569810628891, 0.23733893036842346
0.8250328302383423, -3.7030749320983887, 0.3879316449165344, 0.23842880129814148
0.27299997210502625, -3.7789981365203857, 0.40101292729377747, 0.23776066303253174
-0.5015340447425842, -3.8232264518737793, 0.3528910279273987, 0.23787173628807068
0.12618502974510193, -3.7709436416625977, 0.4020012617111206, 0.23812630772590637
0.3201925456523895, -3.4566574096679688, 0.4023621082305908, 0.2382378876209259
0.522493302822113, -3.8031973838806152, 0.35541555285453796, 0.2374609410762787
-2.062985420227051, -3.8395729064941406, 0.3805862069129944, 0.2381981611251831
0.4471093714237213, -3.7465572357177734, 0.407059907913208, 0.23779815435409546
-0.780865490436554, -3.7065348625183105, 0.41377949714660645, 0.23807454109191895
0.4299207031726837, -3.515176296234131, 0.4015340805053711, 0.23768508434295654
-0.14873579144477844, -3.427449941635132, 0.3644404411315918, 0.23863095045089722
-0.13836340606212616, -3.6830081939697266, 0.45136427879333496, 0.23726409673690796
-1.167359471321106, -3.7789981365203857, 0.40101292729377747, 0.2384064793586731
0.4635513722896576, -3.606398820877075, 0.40759971737861633, 0.23765045404434204
0.48792755603790283, -3.725119113922119, 0.40480154752731323, 0.23777103424072266
-0.2766348421573639, -3.619889259338379, 0.4327818751335144, 0.23806926608085632
0.28038379549980164, -3.3499560356140137, 0.41501301527023315, 0.2374730110168457
0.5282765626907349, -3.748671054840088, 0.4309679865837097, 0.23842474818229675
-0.1179332286119461, -3.4268598556518555, 0.4492855370044708, 0.23774421215057373
0.7452903389930725, -3.8222665786743164, 0.33361494541168213, 0.23842880129814148
0.6521996855735779, -3.718778133392334, 0.3551126718521118, 0.23819437623023987
-0.0354841947555542, -3.8429017066955566, 0.32471340894699097, 0.23774421215057373
0.2239575982093811, -3.8126912117004395, 0.35983073711395264, 0.2379053235054016
0.3275851309299469, -3.7793147563934326, 0.3711208701133728, 0.3570789396762848
0.64264976978302, -3.368866205215454, 0.4189854860305786, 0.15002256631851196
0.6925778388977051, -3.7663381099700928, 0.3499392867088318, 0.7230693697929382
0.33200061321258545, -3.2873616218566895, 0.4198768138885498, 0.2638951539993286
0.4589284062385559, -3.2800815105438232, 0.4057106077671051, 0.4819808602333069
0.7640225291252136, -3.7230722904205322, 0.333621621131897, 0.3327283561229706
0.157064288854599, -3.3341012001037598, 0.43913590908050537, 0.40329617261886597
0.14129024744033813, -3.696296215057373, 0.3392243981361389, 0.30725565552711487
-0.12013894319534302, -3.3520264625549316, 0.39935702085494995, 0.16243921220302582
0.14686359465122223, -3.5081357955932617, 0.4141208529472351, 0.25445836782455444
-0.9743596911430359, -3.7301559448242188, 0.35077545046806335, 0.35953059792518616
0.24338164925575256, -3.7072994709014893, 0.41168126463890076, 0.276919960975647
-0.05822104215621948, -3.70365834236145, 0.39906206727027893, 0.33605971932411194
0.16164039075374603, -3.8099658489227295, 0.36926302313804626, 0.3478890061378479
-0.4724615514278412, -3.826881170272827, 0.35519325733184814, 0.29844391345977783
0.09177563339471817, -3.5984222888946533, 0.3992128372192383, 0.45932459831237793
0.09521692246198654, -3.8415369987487793, 0.3755723237991333, 0.2885727882385254
0.3836368918418884, -3.4726176261901855, 0.33558374643325806, 0.2674572765827179
-0.40967050194740295, -3.8958685398101807, 0.383089542388916, 0.163273885846138
-0.3679807782173157, -3.4718713760375977, 0.35271838307380676, 0.4692775011062622
0.3174881339073181, -3.872093439102173, 0.38063758611679077, 0.20778627693653107
0.3739423453807831, -3.801945209503174, 0.40284401178359985, 0.296128511428833
-0.449624240398407, -3.850733995437622, 0.35468003153800964, 0.2920791208744049
-1.3669259548187256, -3.526043176651001, 0.4445204734802246, 0.21996761858463287
0.8270876407623291, -3.5174131393432617, 0.38124391436576843, 0.13679851591587067
1.2012115716934204, -3.8569250106811523, 0.37177276611328125, 0.3109074831008911
0.5334613919258118, -3.9240994453430176, 0.3139669895172119, 0.31129351258277893
0.2718508243560791, -3.314204692840576, 0.4257363975048065, 0.18702226877212524
-0.25173160433769226, -3.813800096511841, 0.407987117767334, 0.31465944647789
0.36212483048439026, -3.506516218185425, 0.4289093613624573, 0.23578347265720367
-1.5671736001968384, -3.536978244781494, 0.38606250286102295, 0.35002127289772034
0.28844502568244934, -3.7187931537628174, 0.3849050998687744, 0.2481556236743927
0.351620078086853, -3.781010389328003, 0.36233559250831604, 0.24136634171009064
0.38937366008758545, -3.7356464862823486, 0.39024919271469116, -0.034314267337322235
-0.21697942912578583, -3.115335702896118, 0.4264377951622009, 0.4775833189487457
0.08915907144546509, -3.620636463165283, 0.3827599883079529, 0.1955285668373108
-1.5359872579574585, -3.5059192180633545, 0.4114520251750946, 0.4586363136768341
-0.08094480633735657, -3.4748764038085938, 0.4476369023323059, 0.25695013999938965
0.2098902463912964, -3.5181076526641846, 0.3902384340763092, 0.4429667592048645
0.3793935477733612, -3.516303062438965, 0.38844212889671326, 0.058003250509500504
0.059761546552181244, -3.1357100009918213, 0.37750083208084106, 0.16165414452552795
0.7418777346611023, -3.106779098510742, 0.3467867970466614, -0.032556675374507904
0.04661579057574272, -3.0953121185302734, 0.420060396194458, 0.19423247873783112
-0.0802081972360611, -3.5271105766296387, 0.46758803725242615, 0.29668885469436646
-0.7343577146530151, -3.392394542694092, 0.4032951295375824, -0.02891688421368599
-0.2996149957180023, -3.412266969680786, 0.4004753828048706, 0.48358801007270813
0.4760983884334564, -3.655848741531372, 0.3346705436706543, 0.3748222887516022
-0.09605594724416733, -3.596104145050049, 0.423015296459198, 0.30533552169799805
0.6019936203956604, -3.332045316696167, 0.3744128346443176, 0.24851807951927185
-0.8776828050613403, -3.1602349281311035, 0.4551531672477722, 0.2834330201148987
0.2737184762954712, -3.2556629180908203, 0.4323267340660095, 0.32665908336639404
-0.6127640008926392, -3.4646565914154053, 0.4022916853427887, 0.1127970889210701
-1.203847885131836, -3.8865067958831787, 0.37972894310951233, 0.13927003741264343
0.4397650957107544, -3.385613203048706, 0.4023036062717438, 0.14680543541908264
0.675716757774353, -3.8336641788482666, 0.3997558057308197, 0.37855419516563416
0.12588313221931458, -3.8139209747314453, 0.37310221791267395, 0.4855578541755676
0.44279247522354126, -3.768946409225464, 0.3576605021953583, 0.07945676147937775
0.5772152543067932, -3.2734735012054443, 0.37969326972961426, 0.291117399930954
-0.05740001052618027, -3.199065923690796, 0.3665608763694763, 0.3316327929496765
0.27225959300994873, -3.6975228786468506, 0.38045382499694824, 0.4043484926223755
-0.2262236326932907, -3.791003942489624, 0.3252062201499939, 0.40625452995300293
0.3490085005760193, -3.6135292053222656, 0.39788585901260376, 0.26662740111351013
0.579347550868988, -3.670727014541626, 0.3441780209541321, 0.15567508339881897
-0.09064073115587234, -3.5930259227752686, 0.42837268114089966, 0.41311943531036377
-2.522029161453247, -3.5237162113189697, 0.46915581822395325, 0.46716877818107605
0.9197636842727661, -3.7671406269073486, 0.3769236207008362, 0.39757606387138367
0.663933515548706, -3.523475408554077, 0.36974287033081055, 0.40912479162216187
-0.1458250731229782, -3.641584873199463, 0.39499351382255554, 0.40637096762657166
0.22135379910469055, -3.719827175140381, 0.4202019274234772, 0.5367382168769836
0.18132546544075012, -3.8029749393463135, 0.4482925534248352, 0.17475931346416473
-0.29319295287132263, -3.697308301925659, 0.43922093510627747, 0.37659814953804016
0.7320855259895325, -3.931675910949707, 0.3482973873615265, 0.322706013917923
0.539035439491272, -4.029237747192383, 0.37560123205184937, 0.28461718559265137
1.0985016822814941, -3.9289801120758057, 0.3548792600631714, 0.2781907916069031
-0.37478068470954895, -3.9625163078308105, 0.37436747550964355, 0.5163064002990723
0.09350251406431198, -3.428616523742676, 0.4044116735458374, 0.18832874298095703
-0.7747122645378113, -3.8746542930603027, 0.42177796363830566, 0.35165494680404663
-0.24041588604450226, -3.9554266929626465, 0.27827703952789307, 0.33844342827796936
0.7268937826156616, -3.605412244796753, 0.3699563145637512, 0.27638840675354004
0.332075834274292, -3.839179039001465, 0.4730469882488251, 0.3517749309539795
-0.3076794147491455, -3.36936092376709, 0.4505811333656311, 0.23576852679252625
0.31269925832748413, -3.52445912361145, 0.4210194945335388, 0.27450260519981384
0.788259744644165, -3.663142204284668, 0.3354179263114929, 0.2818872332572937
0.36522865295410156, -3.8463215827941895, 0.34560707211494446, 0.3988204896450043
-0.08264525979757309, -3.453648805618286, 0.43511271476745605, 0.2349829226732254
-0.8638024926185608, -3.9070119857788086, 0.3343321979045868, 0.2578340470790863
0.043089017271995544, -3.906834840774536, 0.3350784182548523, 0.17724847793579102
0.6616383790969849, -3.711117744445801, 0.3321935534477234, 0.4311870038509369
-0.4715467393398285, -3.9686431884765625, 0.315194696187973, 0.3009719252586365
0.4335182011127472, -3.8657026290893555, 0.3946247696876526, 0.3747071921825409
0.4891359210014343, -3.5923116207122803, 0.4009301960468292, -0.19072240591049194
0.4498412609100342, -3.9058268070220947, 0.34202855825424194, 0.05523958057165146
0.416820228099823, -3.9421820640563965, 0.34924572706222534, 0.335936576128006
0.6996060013771057, -4.020582675933838, 0.3351981043815613, 0.38428401947021484
0.9229722023010254, -3.7149319648742676, 0.36069631576538086, 0.3020312190055847
-0.27948543429374695, -3.939425230026245, 0.32904842495918274, 0.33144524693489075
0.5100597739219666, -3.9482271671295166, 0.3478142321109772, 0.1917712688446045
0.529266357421875, -4.001145362854004, 0.33787497878074646, 0.2676127254962921
0.31701651215553284, -3.9531261920928955, 0.35345667600631714, 0.5277220010757446
-1.8724753856658936, -3.810140371322632, 0.5525895357131958, 0.6452174782752991
0.8762888312339783, -3.689171552658081, 0.3154005706310272, 0.24319742619991302
-0.8549059629440308, -3.5322318077087402, 0.4523765742778778, 0.26292183995246887
-0.17171184718608856, -4.045027256011963, 0.38343995809555054, 0.11751526594161987
0.9399922490119934, -3.603170394897461, 0.32517170906066895, 0.1748976707458496
0.5718185305595398, -3.9231019020080566, 0.32455411553382874, 0.10283830761909485
-0.046194300055503845, -3.4934022426605225, 0.40968024730682373, 0.19775761663913727
-2.0683231353759766, -3.491483688354492, 0.5020485520362854, 0.30549901723861694
0.053207751363515854, -3.859271764755249, 0.38486504554748535, 0.23963405191898346
0.8787602186203003, -3.6032114028930664, 0.30976808071136475, 0.08956842124462128
1.021925687789917, -3.7721240520477295, 0.3720831274986267, 0.3684566020965576
0.6941810846328735, -3.8613531589508057, 0.33265960216522217, 0.4673454165458679
0.38638657331466675, -3.7213826179504395, 0.3548934757709503, 0.005762532353401184
0.704571008682251, -3.797063112258911, 0.3626803159713745, 0.2511354386806488
-2.1424026489257812, -3.327956438064575, 0.46331363916397095, 0.052751850336790085
0.23403112590312958, -3.856328010559082, 0.3235528767108917, 0.28743869066238403
0.45457446575164795, -3.8186752796173096, 0.35926172137260437, 0.2513454556465149
0.68910813331604, -3.4058971405029297, 0.41155606508255005, 0.2774161696434021
0.8412675261497498, -3.8158769607543945, 0.34205642342567444, 0.20988324284553528
-1.4609349966049194, -3.7217302322387695, 0.4096495807170868, 0.5249334573745728
-0.8228899836540222, -3.452787399291992, 0.4451301693916321, 0.2365226149559021
0.43587401509284973, -3.8376567363739014, 0.39695972204208374, 0.5770025849342346
-0.38848498463630676, -3.653935194015503, 0.32393336296081543, 0.3724972903728485
-0.7240116596221924, -3.545490264892578, 0.4009833037853241, 0.4688577950000763
0.5514072775840759, -3.6134867668151855, 0.3589218854904175, 0.27639058232307434
0.4151409864425659, -3.5979254245758057, 0.30657899379730225, 0.23201963305473328
0.11359710246324539, -3.9238264560699463, 0.3608887791633606, 0.5767351388931274
0.19297465682029724, -3.7661149501800537, 0.39094120264053345, 0.40165975689888
0.5645767450332642, -3.898878335952759, 0.40663808584213257, 0.06917591392993927
0.8448657989501953, -3.964360237121582, 0.3473398685455322, 0.4092833995819092
-0.18828386068344116, -3.8507463932037354, 0.3623020052909851, 0.3554832339286804
0.4450954496860504, -4.045373916625977, 0.3477940261363983, 0.4534226655960083
0.5213841199874878, -4.029360771179199, 0.3532302677631378, 0.34348011016845703
0.4093565344810486, -3.732525110244751, 0.4280039370059967, 0.24688038229942322
0.2172742784023285, -4.010777950286865, 0.37121081352233887, 0.1479831039905548
0.15323123335838318, -3.8360884189605713, 0.39391374588012695, 0.1197715476155281
0.5896398425102234, -3.9707283973693848, 0.3594939112663269, 0.15031012892723083
-2.769728183746338, -4.012979507446289, 0.3624284565448761, 0.46409621834754944
0.5492637157440186, -4.006901264190674, 0.3358986973762512, 0.5051087737083435
0.2668914794921875, -3.96591854095459, 0.3299560546875, 0.27137717604637146
0.4657678008079529, -3.9386467933654785, 0.3552166819572449, 0.21835924685001373
0.382863849401474, -3.8446576595306396, 0.34305012226104736, 0.21789826452732086
-1.1180797815322876, -3.965374708175659, 0.34804558753967285, 0.21924330294132233
0.7413629293441772, -4.089434623718262, 0.3655157685279846, 0.21804644167423248
0.06435731053352356, -3.982860565185547, 0.33825135231018066, 0.21974243223667145
0.5789481401443481, -3.7996792793273926, 0.3089789152145386, 0.2189834862947464
1.0269545316696167, -3.716144561767578, 0.3296695351600647, 0.21808849275112152
-1.363508939743042, -4.054466724395752, 0.43279898166656494, 0.2184838205575943
0.5950397849082947, -3.825585126876831, 0.335521936416626, 0.21881254017353058
0.9295223355293274, -4.075301170349121, 0.32360440492630005, 0.21813778579235077
0.23215846717357635, -4.041025638580322, 0.3544420003890991, 0.21819423139095306
0.28609853982925415, -3.7996792793273926, 0.3089789152145386, 0.219204381108284
0.8546205759048462, -3.826892137527466, 0.3764110207557678, 0.21869157254695892
0.9714305400848389, -3.8800649642944336, 0.3761463165283203, 0.21808849275112152
0.6565055251121521, -4.095020294189453, 0.326671302318573, 0.21811158955097198
0.03130977973341942, -4.097696304321289, 0.3440583348274231, 0.21834932267665863
0.4993633031845093, -3.9832305908203125, 0.3340482711791992, 0.21843458712100983
0.8030909895896912, -3.847261905670166, 0.2529125213623047, 0.21872521936893463
0.23267249763011932, -4.131010055541992, 0.3463165760040283, 0.21835924685001373
-0.043533388525247574, -4.019956111907959, 0.4065675139427185, 0.21867956221103668
0.5683200359344482, -4.06740140914917, 0.35062581300735474, 0.21836413443088531
0.5935025811195374, -3.7096452713012695, 0.43514949083328247, 0.21869157254695892
0.5299685597419739, -4.188078880310059, 0.2802906036376953, 0.21832944452762604
0.010516197420656681, -4.127685546875, 0.424095094203949, 0.219204381108284
-0.1639893501996994, -4.072475910186768, 0.3295843005180359, 0.21867485344409943
0.5320237874984741, -4.112712860107422, 0.30119192600250244, 0.21834532916545868
-0.29247596859931946, -4.065173149108887, 0.36322522163391113, 0.21884222328662872
0.02714874967932701, -3.866605758666992, 0.26471376419067383, 0.21856294572353363
-1.7849072217941284, -3.94649076461792, 0.43914252519607544, 0.2184838205575943
-0.08611205220222473, -4.1273345947265625, 0.3804747462272644, 0.21884222328662872
0.44360750913619995, -4.071229457855225, 0.33240461349487305, 0.21820269525051117
-0.4896579682826996, -3.993802070617676, 0.411535382270813, 0.21847806870937347
-0.27447187900543213, -3.911458969116211, 0.3557535409927368, 0.21827547252178192
0.6426205635070801, -4.149837017059326, 0.2920146584510803, 0.21809791028499603
0.3079604208469391, -4.065173149108887, 0.36322522163391113, 0.21832872927188873
0.3724653422832489, -3.7628164291381836, 0.47442877292633057, 0.2187313586473465
0.9182140231132507, -3.9832305908203125, 0.3340482711791992, 0.2181340605020523
-2.5853710174560547, -3.857184410095215, 0.3948809504508972, 0.21921445429325104
0.3322279453277588, -4.0259881019592285, 0.38510483503341675, 0.21869157254695892
0.8490228652954102, -4.151230335235596, 0.29404693841934204, 0.21811158955097198
0.46563223004341125, -4.0259881019592285, 0.38510483503341675, 0.21872521936893463
-1.08761465549469, -3.8829267024993896, 0.4190414547920227, 0.2186429351568222
0.4985271990299225, -3.673576831817627, 0.4396017789840698, 0.21811158955097198
0.548406720161438, -4.078545093536377, 0.3823016285896301, 0.218169704079628
-1.609815239906311, -4.143745422363281, 0.30350416898727417, 0.21902288496494293
0.7328523993492126, -3.8582468032836914, 0.32468676567077637, 0.21869660913944244
0.3964060842990875, -4.178585052490234, 0.27243173122406006, 0.21843458712100983
0.4517107307910919, -4.140085220336914, 0.3417820930480957, 0.2189834862947464
0.618324875831604, -4.076436996459961, 0.3309400677680969, 0.21906818449497223
0.11613079905509949, -3.7780230045318604, 0.4701804518699646, 0.21834532916545868
0.8542481660842896, -3.8839304447174072, 0.362504243850708, 0.21851922571659088
0.7865394353866577, -4.047123908996582, 0.33255183696746826, 0.2181282788515091
-1.5091056823730469, -4.078352928161621, 0.3493800759315491, 0.21812458336353302
0.5363056659698486, -4.119393348693848, 0.2892369031906128, 0.21835924685001373
0.8225973844528198, -4.132210731506348, 0.33542048931121826, 0.21833182871341705
0.2680783271789551, -3.838459014892578, 0.3623276352882385, 0.2181345671415329
-1.4089443683624268, -4.159412384033203, 0.3145694136619568, 0.21879948675632477
0.37377339601516724, -4.019082546234131, 0.34535861015319824, 0.21855734288692474
0.44858428835868835, -3.781940460205078, 0.40839529037475586, 0.21820269525051117
0.5361877679824829, -4.124163627624512, 0.3255198001861572, 0.21855734288692474
-1.835761308670044, -3.903568983078003, 0.3625418543815613, 0.21924330294132233
0.39789310097694397, -4.038786888122559, 0.37493640184402466, 0.21877194941043854
-1.3762356042861938, -3.9585511684417725, 0.41938894987106323, 0.219019815325737
-0.8833780288696289, -4.055934429168701, 0.352847158908844, 0.21863619983196259
0.16590243577957153, -4.091246604919434, 0.39912497997283936, 0.21882660686969757
0.7657896280288696, -4.1286234855651855, 0.31944769620895386, 0.21855734288692474
1.0529334545135498, -3.8652539253234863, 0.314836323261261, 0.21779502928256989
0.9418668746948242, -4.041025638580322, 0.3544420003890991, 0.21804644167423248
0.0913144126534462, -3.831580400466919, 0.2807115316390991, 0.21974243223667145
0.6463463306427002, -4.085238456726074, 0.36191219091415405, 0.2184819132089615
-1.3121318817138672, -4.050411701202393, 0.33556997776031494, 0.21916134655475616
-0.8548076152801514, -4.056139945983887, 0.32578176259994507, 0.21830196678638458
-0.8153334259986877, -4.1040825843811035, 0.3681938052177429, 0.21830196678638458
0.9382812976837158, -3.9818367958068848, 0.36598098278045654, 0.2181282788515091
0.8209654092788696, -3.8856170177459717, 0.3296874165534973, 0.2184819132089615
0.9664471745491028, -3.8800649642944336, 0.3761463165283203, 0.21779502928256989
-0.41246935725212097, -3.7780230045318604, 0.4701804518699646, 0.21831710636615753
-0.41906869411468506, -4.174034118652344, 0.2975228428840637, 0.2186429351568222
-0.2860561013221741, -3.8014450073242188, 0.3181549906730652, 0.2186429351568222
-0.8155254125595093, -4.126553058624268, 0.32192128896713257, 0.21879948675632477
0.3917759954929352, -4.127166748046875, 0.29124921560287476, 0.21802501380443573
-0.8052297234535217, -4.0714898109436035, 0.2985302209854126, 0.21916134655475616
-1.1035223007202148, -4.061244487762451, 0.3705222010612488, 0.21812458336353302
0.3364275097846985, -4.038786888122559, 0.37493640184402466, 0.21821172535419464
0.7007023692131042, -4.104473114013672, 0.3280832767486572, 0.2181340605020523
0.10653996467590332, -4.050411701202393, 0.33556997776031494, 0.21840299665927887
-0.49540629982948303, -4.062071800231934, 0.37909507751464844, 0.21974243223667145
-1.632187008857727, -3.8628456592559814, 0.4492594003677368, 0.21863619983196259
0.48608270287513733, -4.119871139526367, 0.36123865842819214, 0.21853061020374298
0.5397083759307861, -4.086705684661865, 0.30735981464385986, 0.21831054985523224
0.20667444169521332, -4.055934429168701, 0.352847158908844, 0.21843458712100983
-1.5239495038986206, -3.94649076461792, 0.43914252519607544, 0.219019815325737
0.8171153664588928, -4.04130220413208, 0.3250280022621155, 0.21855734288692474
0.6016775965690613, -3.8242344856262207, 0.2868880033493042, 0.21834532916545868
-0.16914977133274078, -3.6750192642211914, 0.5034009218215942, 0.21820269525051117
0.4134289622306824, -4.135407447814941, 0.3177979588508606, 0.21853061020374298
-3.042652130126953, -3.9432621002197266, 0.5571699142456055, 0.21879948675632477
0.7549043893814087, -4.156778335571289, 0.29300445318222046, 0.21882127225399017
0.6273518800735474, -3.8247900009155273, 0.36872994899749756, 0.21809791028499603
0.6131340861320496, -4.111020565032959, 0.3309112787246704, 0.2184768170118332
0.7873216867446899, -4.072475910186768, 0.3295843005180359, 0.21834532916545868
0.3816928267478943, -3.830808162689209, 0.4025765061378479, 0.21832872927188873
-0.610801100730896, -4.167417049407959, 0.30246633291244507, 0.21924330294132233
0.5510461926460266, -4.081630706787109, 0.33076369762420654, 0.2181340605020523
0.23971834778785706, -4.107405662536621, 0.33043843507766724, 0.219204381108284
0.5418244004249573, -4.057229042053223, 0.3904953598976135, 0.218169704079628
0.4343737065792084, -4.064353942871094, 0.43271178007125854, 0.2184819132089615
0.5834965705871582, -4.082809925079346, 0.3490368127822876, 0.21835924685001373
-0.08480839431285858, -3.984544277191162, 0.39240705966949463, 0.2186429351568222
0.11188048869371414, -3.7628164291381836, 0.47442877292633057, 0.21882127225399017
0.49376267194747925, -4.0786590576171875, 0.35848158597946167, 0.21835924685001373
0.44921407103538513, -4.124607086181641, 0.28803956508636475, 0.21840299665927887
0.4190286695957184, -4.09412956237793, 0.3566679358482361, 0.21832944452762604
0.8841230869293213, -3.946781635284424, 0.3238039016723633, 0.2187313586473465
0.081314817070961, -3.7020158767700195, 0.45645982027053833, 0.21867956221103668
-1.6398886442184448, -4.078352928161621, 0.3493800759315491, 0.21856294572353363
-0.2667519748210907, -3.9610841274261475, 0.3301655054092407, 0.2184838205575943
0.7245121002197266, -4.076639175415039, 0.3987630605697632, 0.21779502928256989
0.8030642867088318, -3.9030494689941406, 0.3579796552658081, 0.2181340605020523
-0.019364744424819946, -4.040535926818848, 0.36556947231292725, 0.2181340605020523
-1.093894600868225, -4.091797828674316, 0.346110463142395, 0.21916134655475616
0.232527956366539, -3.969808340072632, 0.43499642610549927, 0.21896101534366608
-0.4074907600879669, -4.026689529418945, 0.41013842821121216, 0.21831710636615753
0.8620330691337585, -4.094021320343018, 0.3112238645553589, 0.21804644167423248
0.8857080340385437, -3.965374708175659, 0.34804558753967285, 0.21872521936893463
0.3261083662509918, -4.188078880310059, 0.2802906036376953, 0.21840299665927887
-0.2732866108417511, -4.151230335235596, 0.29404693841934204, 0.21867485344409943
0.8045004606246948, -4.037985324859619, 0.3022114038467407, 0.21832872927188873
0.9409229755401611, -4.037985324859619, 0.3022114038467407, 0.2181282788515091
-1.2483668327331543, -4.091246604919434, 0.39912497997283936, 0.21867485344409943
0.9802474975585938, -3.815185546875, 0.36049574613571167, 0.21804644167423248
0.4062192142009735, -3.806981086730957, 0.35040968656539917, 0.21834932267665863
0.7335309982299805, -4.066607475280762, 0.3295172452926636, 0.21833182871341705
0.811406672000885, -4.141777038574219, 0.3256927728652954, 0.21833182871341705
-0.3268844783306122, -4.05911922454834, 0.34563714265823364, 0.21789826452732086
0.5251359939575195, -4.0786590576171875, 0.35848158597946167, 0.21832944452762604
-0.06762529164552689, -3.926926612854004, 0.47369372844696045, 0.21881254017353058
0.022737324237823486, -4.10362434387207, 0.36409419775009155, 0.21884222328662872
-0.09969484061002731, -4.061065673828125, 0.3747318387031555, 0.21974249184131622
0.6440047025680542, -3.7118797302246094, 0.4301484227180481, 0.21808849275112152
0.5813639163970947, -3.8263802528381348, 0.3877546787261963, 0.21831054985523224
-0.2791115343570709, -3.6100120544433594, 0.537155032157898, 0.21882660686969757
0.7491304278373718, -3.7651941776275635, 0.38670098781585693, 0.21808849275112152
0.48642638325691223, -4.072369575500488, 0.28547412157058716, 0.218169704079628
-1.0887559652328491, -4.018691539764404, 0.3659961223602295, 0.21863619983196259
-2.1676909923553467, -4.085004806518555, 0.39781373739242554, 0.21879948675632477
0.4063417613506317, -4.135407447814941, 0.3177979588508606, 0.21836413443088531
0.8448041677474976, -3.757946491241455, 0.33144134283065796, 0.21779502928256989
0.13096539676189423, -4.019956111907959, 0.4065675139427185, 0.21853061020374298
1.0152612924575806, -4.084255218505859, 0.3176940083503723, 0.21832872927188873
0.022897914052009583, -4.095020294189453, 0.326671302318573, 0.219204381108284
0.3701307773590088, -3.9069528579711914, 0.3367229700088501, 0.21827547252178192
0.12156122922897339, -4.0722198486328125, 0.31420719623565674, 0.219204381108284
0.6284551620483398, -4.092287063598633, 0.3202016353607178, 0.2184819132089615
0.4518175721168518, -3.8253941535949707, 0.396248996257782, 0.21813778579235077
-1.344093680381775, -3.686417818069458, 0.49521946907043457, 0.21812458336353302
0.7666433453559875, -3.9233248233795166, 0.270763099193573, 0.21869660913944244
-0.5921446084976196, -3.9890546798706055, 0.3383917808532715, 0.21916134655475616
0.18515796959400177, -4.066607475280762, 0.3295172452926636, 0.21869660913944244
0.2827892005443573, -4.077020168304443, 0.32483935356140137, 0.21789826452732086
0.6542458534240723, -3.903501033782959, 0.3626176714897156, 0.21832944452762604
0.5454941987991333, -4.131407260894775, 0.3330898880958557, 0.21896101534366608
-0.40730157494544983, -4.178585052490234, 0.27243173122406006, 0.21867485344409943
-1.2960560321807861, -4.124163627624512, 0.3255198001861572, 0.21879948675632477
0.6577808856964111, -4.15579891204834, 0.305256187915802, 0.2184819132089615
-0.7867507338523865, -4.13370418548584, 0.319969117641449, 0.21848823130130768
0.9028643369674683, -4.04130220413208, 0.3250280022621155, 0.21872521936893463
0.028267979621887207, -4.081630706787109, 0.33076369762420654, 0.21847806870937347
0.8613976240158081, -4.140231132507324, 0.2782791256904602, 0.21779502928256989
0.9339967966079712, -4.089807033538818, 0.32245934009552, 0.21808849275112152
0.21543949842453003, -3.9069528579711914, 0.3367229700088501, 0.21974243223667145
0.38687995076179504, -4.08860969543457, 0.34040868282318115, 0.21831710636615753
-0.24993135035037994, -3.9585511684417725, 0.41938894987106323, 0.21834932267665863
0.1441614329814911, -3.8143715858459473, 0.4070207476615906, 0.219204381108284
1.0921584367752075, -3.901149034500122, 0.3467746376991272, 0.21434517204761505
0.06728692352771759, -4.089234828948975, 0.3407377302646637, 0.04510854184627533
0.33653882145881653, -4.0066142082214355, 0.3767138123512268, 0.32705220580101013
-0.4406443238258362, -4.03753662109375, 0.30114975571632385, 0.33417558670043945
-0.08773762732744217, -4.037171363830566, 0.38851529359817505, 0.36400532722473145
0.7511171102523804, -4.108292102813721, 0.3624536097049713, -0.027761057019233704
0.4355529844760895, -4.15637731552124, 0.35737040638923645, 0.1480374038219452
0.19291245937347412, -4.170482158660889, 0.3291882872581482, 0.13834598660469055
-1.177649736404419, -4.031949996948242, 0.3761644959449768, 0.5773218870162964
0.4019061326980591, -4.261547565460205, 0.321616530418396, 0.42395541071891785
0.35525956749916077, -4.220067024230957, 0.38459065556526184, 0.3413410782814026
0.5651652216911316, -4.218078136444092, 0.38077449798583984, 0.1286865770816803
1.0597732067108154, -4.199731826782227, 0.3430890738964081, 0.341598242521286
0.5681686401367188, -4.153773307800293, 0.4092390537261963, 0.355237752199173
0.639329731464386, -3.9397692680358887, 0.3875200152397156, 0.1029513031244278
-0.5177318453788757, -4.279729843139648, 0.37015172839164734, 0.42086610198020935
-0.1812163144350052, -4.180592060089111, 0.37872105836868286, 0.2687469720840454
0.818541944026947, -3.9135372638702393, 0.2981056869029999, 0.19869427382946014
0.09182924777269363, -3.8463685512542725, 0.39183032512664795, 0.30197998881340027
0.29094406962394714, -3.824692726135254, 0.41045552492141724, 0.545748233795166
-0.2299037128686905, -4.136465072631836, 0.3217769265174866, 0.1949390023946762
1.3200310468673706, -3.97683048248291, 0.36024007201194763, 0.3347580134868622
0.34470444917678833, -3.917933702468872, 0.3989976942539215, 0.18202903866767883
0.4923555850982666, -3.9522898197174072, 0.36002016067504883, 0.4626925587654114
0.14449074864387512, -3.66542387008667, 0.3913719058036804, 0.18190059065818787
0.12013751268386841, -3.9783878326416016, 0.3885142207145691, 0.4783586859703064
0.22294923663139343, -3.954162359237671, 0.3700088560581207, 0.3862278461456299
0.7965044975280762, -3.940248489379883, 0.4196264147758484, 0.08454650640487671
0.2337053269147873, -4.04157018661499, 0.372408390045166, 0.32482069730758667
-0.693766713142395, -3.931536912918091, 0.47013774514198303, 0.41017255187034607
0.7955948710441589, -3.749431848526001, 0.29333415627479553, 0.2138538807630539
0.509742259979248, -3.9230148792266846, 0.37854906916618347, 0.2929363250732422
0.8348042368888855, -3.8159706592559814, 0.41800549626350403, 0.1284819394350052
0.2795947194099426, -3.5491676330566406, 0.45708033442497253, 0.2880260944366455
0.06462506949901581, -4.098257064819336, 0.3759164810180664, 0.5542608499526978
-0.6191057562828064, -3.8531877994537354, 0.43970826268196106, 0.3943749666213989
0.379239946603775, -3.7134811878204346, 0.395837664604187, 0.266147643327713
0.9697981476783752, -3.970567464828491, 0.39469146728515625, 0.39470550417900085
0.687984824180603, -3.98691725730896, 0.31755557656288147, 0.15923750400543213
0.16753461956977844, -3.904268980026245, 0.3712300956249237, 0.4151895046234131
0.8995780348777771, -3.980955123901367, 0.33726420998573303, 0.25365549325942993
0.7315597534179688, -4.054677963256836, 0.3037400543689728, 0.2905525267124176
-0.24341408908367157, -4.007336616516113, 0.38344573974609375, -0.047777727246284485
-0.7179903388023376, -3.9816079139709473, 0.3288536071777344, 0.32246530055999756
0.7244153618812561, -3.6966466903686523, 0.33144411444664, 0.03673253580927849
0.5406463742256165, -4.037053108215332, 0.39139458537101746, 0.12691421806812286
0.06322118639945984, -4.044407367706299, 0.3928329050540924, 0.7943985462188721
0.7372521758079529, -4.048827648162842, 0.30197304487228394, 0.3614191710948944
0.8035597205162048, -4.031630039215088, 0.3654627203941345, 0.44448763132095337
0.5051658153533936, -3.981524705886841, 0.3774808645248413, 0.47327613830566406
0.6444028615951538, -3.9677085876464844, 0.37244364619255066, 0.22543098032474518
1.1704341173171997, -3.816490888595581, 0.352947860956192, 0.1704484075307846
-0.8042905926704407, -3.909031629562378, 0.4466341435909271, 0.26972389221191406
0.44145604968070984, -3.757535934448242, 0.4128345549106598, 0.11187078058719635
0.005613711662590504, -4.015867233276367, 0.30759260058403015, 0.31525489687919617
-0.012299424037337303, -3.7250399589538574, 0.41702085733413696, 0.2985237240791321
0.8539804220199585, -3.9977545738220215, 0.3814921975135803, 0.3933221101760864
0.6929517984390259, -3.769624710083008, 0.28240692615509033, 0.367192804813385
0.6871597170829773, -4.071323394775391, 0.33890700340270996, 0.2405208796262741
0.9978892803192139, -4.0455145835876465, 0.39988428354263306, 0.269589364528656
-0.19983428716659546, -4.104623317718506, 0.32019761204719543, 0.4130299389362335
0.36509808897972107, -4.088968753814697, 0.39691516757011414, 0.31221523880958557
1.1101897954940796, -4.109928131103516, 0.36242103576660156, 0.44937756657600403
-0.20418503880500793, -3.9626927375793457, 0.45103469491004944, 0.37409523129463196
0.830177366733551, -3.7753219604492188, 0.37143152952194214, 0.40088164806365967
0.639787495136261, -3.955129861831665, 0.3811523914337158, 0.3945889472961426
0.2131250947713852, -4.128376007080078, 0.3099466562271118, 0.4138907492160797
-0.3863980174064636, -4.055576324462891, 0.3493225872516632, 0.22161680459976196
0.4962154030799866, -4.068831920623779, 0.359112948179245, 0.3303695321083069
-0.500581681728363, -4.109482288360596, 0.3469720780849457, 0.3023940622806549
0.2338496297597885, -4.111605167388916, 0.328402578830719, 0.4468070864677429
0.6713423132896423, -3.983142375946045, 0.38093864917755127, 0.4983119070529938
-0.011241552419960499, -3.756289482116699, 0.3774181306362152, 0.2772049307823181
0.1359301209449768, -3.5874369144439697, 0.3608090877532959, 0.34163951873779297
0.19082745909690857, -3.6966605186462402, 0.35490962862968445, 0.31301310658454895
0.0192943774163723, -3.9696521759033203, 0.3564389646053314, 0.25666290521621704
0.20657478272914886, -3.747145414352417, 0.38987305760383606, -0.2341974675655365
0.45630818605422974, -3.8536338806152344, 0.38489478826522827, 0.19663186371326447
0.5247879028320312, -3.7474253177642822, 0.44624730944633484, -0.10878415405750275
0.6370055079460144, -3.760225296020508, 0.3828440308570862, 0.3806127607822418
0.46481528878211975, -3.777411460876465, 0.36654937267303467, 0.4196031093597412
0.2272735983133316, -3.9978320598602295, 0.37000125646591187, 0.19759966433048248
-0.4244649410247803, -3.6635375022888184, 0.4402674436569214, 0.29915377497673035
0.40575581789016724, -4.170767784118652, 0.32642024755477905, 0.34839123487472534
0.4950200021266937, -3.732001543045044, 0.37538766860961914, 0.42120853066444397
0.5230002403259277, -3.806112766265869, 0.30969253182411194, 0.08585011959075928
0.4313628673553467, -4.114720344543457, 0.37049999833106995, 0.4164198935031891
0.6778432130813599, -3.9091427326202393, 0.38538095355033875, 0.08460646867752075
0.9291898012161255, -4.05589485168457, 0.4162956178188324, 0.37075039744377136
0.9059430956840515, -4.078076362609863, 0.4061242640018463, 0.41841235756874084
-0.09335841238498688, -4.045713901519775, 0.32223987579345703, 0.17995423078536987
0.3036783039569855, -3.7521984577178955, 0.4523636996746063, 0.4314548075199127
-0.13677287101745605, -3.7943012714385986, 0.30220627784729004, 0.245650976896286
1.1096270084381104, -3.831566095352173, 0.38742971420288086, 0.3456434905529022
0.8273229598999023, -4.118744373321533, 0.3326798379421234, 0.19134435057640076
0.331721693277359, -4.031609535217285, 0.37265461683273315, 0.44105085730552673
0.7179471254348755, -4.139685153961182, 0.34937745332717896, 0.22704735398292542
0.03221241012215614, -4.074496746063232, 0.3898548483848572, 0.4998246133327484
0.13992168009281158, -4.0953874588012695, 0.35205626487731934, 0.33970555663108826
-1.3461687564849854, -3.9996654987335205, 0.4138791263103485, 0.28476202487945557
0.8368344902992249, -4.061304092407227, 0.340139776468277, 0.15775243937969208
0.37019628286361694, -4.091127395629883, 0.3675665557384491, 0.19983188807964325
0.004729029722511768, -4.086685657501221, 0.3298616409301758, 0.23589110374450684
1.1278181076049805, -4.098386764526367, 0.36770910024642944, 0.22384977340698242
-0.5391137003898621, -3.6987524032592773, 0.49102169275283813, 0.15590812265872955
0.623155951499939, -4.018833637237549, 0.3480408191680908, 0.23017728328704834
-0.2767985761165619, -4.137791156768799, 0.3556654453277588, 0.24323025345802307
0.7286155819892883, -3.874143362045288, 0.402061402797699, 0.5919083952903748
-1.3942264318466187, -4.025668621063232, 0.39399558305740356, 0.3606020212173462
0.6939159035682678, -4.071899890899658, 0.4058925211429596, 0.22466641664505005
0.044113896787166595, -3.8077938556671143, 0.3728705048561096, 0.1471921056509018
0.27597537636756897, -4.120302677154541, 0.32696908712387085, 0.4743293225765228
0.3729647099971771, -4.072289943695068, 0.4150811731815338, 0.37342989444732666
0.5747126936912537, -4.136416912078857, 0.37396320700645447, 0.16397419571876526
0.14279231429100037, -4.085177898406982, 0.3596203625202179, 0.24887916445732117
-0.43998122215270996, -4.106534481048584, 0.3653271794319153, 0.5942676663398743
0.10131953656673431, -3.8931987285614014, 0.4157660901546478, 0.12815721333026886
-0.9732733964920044, -3.670597553253174, 0.4612357020378113, 0.36463767290115356
-0.1149756908416748, -4.043640613555908, 0.32048264145851135, 0.5244786143302917
0.9770601987838745, -4.033101558685303, 0.34334829449653625, 0.26281046867370605
1.1910922527313232, -4.0539631843566895, 0.3467061519622803, 0.34885549545288086
-1.0689141750335693, -4.085541248321533, 0.36607545614242554, 0.3550311326980591
0.6991509199142456, -4.072995662689209, 0.3882800340652466, 0.30682602524757385
0.040876876562833786, -4.042461395263672, 0.4428822100162506, 0.2705193758010864
0.0841531753540039, -4.237185478210449, 0.3374533951282501, 0.5052580833435059
-0.6724814772605896, -4.1406474113464355, 0.3501632809638977, 0.10388344526290894
0.7528080940246582, -4.2256388664245605, 0.3835482895374298, 0.17639794945716858
0.3450465500354767, -4.173769950866699, 0.3199547529220581, 0.588495671749115
0.13110214471817017, -4.28494119644165, 0.33851927518844604, 0.4039630591869354
0.1706424355506897, -4.346464157104492, 0.30580276250839233, 0.3217000961303711
0.8703455924987793, -4.072783470153809, 0.2988613545894623, 0.07787257432937622
1.2446682453155518, -4.217536926269531, 0.3495159149169922, 0.48559966683387756
-0.7765788435935974, -4.225194931030273, 0.34151601791381836, 0.37546512484550476
0.23722533881664276, -4.204843997955322, 0.4072306752204895, 0.20534071326255798
-1.1113258600234985, -4.054348945617676, 0.4499916136264801, 0.5196999907493591
0.6559291481971741, -3.675112724304199, 0.47362402081489563, 0.5015955567359924
0.899969220161438, -4.044180870056152, 0.34924083948135376, 0.17723014950752258
0.34280577301979065, -4.122260570526123, 0.3746870458126068, 0.3739704191684723
-0.032612644135951996, -3.9410312175750732, 0.293222576379776, 0.585722804069519
0.425168514251709, -4.241323947906494, 0.34513816237449646, 0.23342454433441162
0.7423580288887024, -4.2031941413879395, 0.37698617577552795, 0.23339968919754028
0.14029958844184875, -3.8845410346984863, 0.41449567675590515, 0.23321157693862915
-1.2731508016586304, -4.154503345489502, 0.4285469353199005, 0.23336854577064514
0.9735835194587708, -4.036221027374268, 0.2961205542087555, 0.23337450623512268
0.8365712761878967, -4.273452281951904, 0.3172607719898224, 0.23317617177963257
0.33599478006362915, -3.90040922164917, 0.351541131734848, 0.23318105936050415
0.43517208099365234, -4.016835689544678, 0.2505043148994446, 0.23326751589775085
0.5528062582015991, -4.190200328826904, 0.32526782155036926, 0.23300355672836304
0.5714820027351379, -4.32055139541626, 0.29295921325683594, 0.23322629928588867
0.03190108388662338, -4.270780086517334, 0.33070674538612366, 0.23323112726211548
0.02950241044163704, -4.231411933898926, 0.33527281880378723, 0.2331816554069519
-0.26861777901649475, -4.235275745391846, 0.3283897042274475, 0.23328524827957153
0.6230939030647278, -4.270043849945068, 0.3372217118740082, 0.23330765962600708
-0.39335259795188904, -4.004251003265381, 0.38800737261772156, 0.23350530862808228
0.563755452632904, -4.116913318634033, 0.3997843861579895, 0.23336756229400635
0.5890608429908752, -4.220562934875488, 0.3244347870349884, 0.23322629928588867
0.6017601490020752, -4.253940582275391, 0.32529976963996887, 0.23318758606910706
0.7526865601539612, -4.2140936851501465, 0.31583574414253235, 0.23339968919754028
-2.121782064437866, -4.26678991317749, 0.36782655119895935, 0.23361575603485107
0.5054836273193359, -3.894351005554199, 0.32367566227912903, 0.23350530862808228
0.21196167171001434, -4.010254383087158, 0.4475170969963074, 0.2334490418434143
0.546591579914093, -4.298032760620117, 0.37410876154899597, 0.23336756229400635
0.7138549089431763, -4.229210376739502, 0.3269219398498535, 0.23338091373443604
0.04946187511086464, -4.353923797607422, 0.30596086382865906, 0.23326057195663452
1.0480263233184814, -4.096164226531982, 0.36376363039016724, 0.23322424292564392
0.9047196507453918, -3.951996088027954, 0.37692925333976746, 0.2331714630126953
0.5432755351066589, -4.284725189208984, 0.36931610107421875, 0.2332828938961029
0.16933207213878632, -4.221787929534912, 0.4044174253940582, 0.23342454433441162
0.5604094862937927, -4.10260534286499, 0.36795374751091003, 0.2330814003944397
0.4913499355316162, -3.9527642726898193, 0.34408318996429443, 0.23340186476707458
0.8055864572525024, -4.154391288757324, 0.3679333031177521, 0.23331105709075928
-1.2204935550689697, -4.043735504150391, 0.42612847685813904, 0.2338348627090454
0.582804262638092, -4.114618301391602, 0.40872207283973694, 0.2334316372871399
0.4564218521118164, -4.306687831878662, 0.31713882088661194, 0.2329363226890564
0.8542680144309998, -4.16372537612915, 0.35971206426620483, 0.23331359028816223
-0.4594700038433075, -4.232217311859131, 0.33185991644859314, 0.233258455991745
0.39016273617744446, -4.188769340515137, 0.38022178411483765, 0.23343873023986816
-0.4353731870651245, -3.90529203414917, 0.4859081208705902, 0.23318105936050415
0.7496364116668701, -4.0713982582092285, 0.40917250514030457, 0.23349004983901978
0.9908086061477661, -4.1647844314575195, 0.32907697558403015, 0.23337450623512268
0.05208989977836609, -4.044486999511719, 0.4566526710987091, 0.23340186476707458
0.7497875690460205, -4.108151912689209, 0.33934909105300903, 0.23307567834854126
0.6307715177536011, -4.259972095489502, 0.2847711145877838, 0.2332303524017334
-0.8465908169746399, -4.19682502746582, 0.3399448096752167, 0.23336854577064514
-2.4895036220550537, -4.252290725708008, 0.33651435375213623, 0.23361575603485107
0.5775282382965088, -4.204834461212158, 0.3681337833404541, 0.23340186476707458
-0.015966180711984634, -3.989013195037842, 0.2810141444206238, 0.23313111066818237
0.09319902956485748, -4.29054069519043, 0.3011520802974701, 0.23326751589775085
0.21496929228305817, -3.962932825088501, 0.37708336114883423, 0.23342454433441162
-0.7974584102630615, -4.0304999351501465, 0.43247461318969727, 0.23331063985824585
0.9563828706741333, -4.2513508796691895, 0.2893795967102051, 0.2331714630126953
0.9788678884506226, -4.064214706420898, 0.4221865236759186, 0.23321157693862915
0.5504373908042908, -4.202857971191406, 0.4048313498497009, 0.2332836389541626
-0.6608139276504517, -4.20432186126709, 0.38643795251846313, 0.23313111066818237
0.35338860750198364, -4.18186092376709, 0.4122723340988159, 0.23340186476707458
0.11797647923231125, -4.189370632171631, 0.3172021508216858, 0.23332011699676514
0.8506330847740173, -3.99495792388916, 0.3500562012195587, 0.2334490418434143
0.11652267724275589, -4.262352466583252, 0.2702833414077759, 0.23331063985824585
0.9264203906059265, -4.300436019897461, 0.30234190821647644, 0.2331714630126953
-0.4457397758960724, -4.20399808883667, 0.3811037242412567, 0.23312151432037354
0.7268984913825989, -4.267103672027588, 0.3141125738620758, 0.23337450623512268
-0.0601373091340065, -4.072567462921143, 0.46992239356040955, 0.23307567834854126
0.3268551826477051, -4.262701511383057, 0.3333771526813507, 0.23320350050926208
0.0722726359963417, -3.977048873901367, 0.3513185381889343, 0.23342585563659668
0.7943485379219055, -3.9033219814300537, 0.44407933950424194, 0.2332754135131836
-0.37395086884498596, -4.236789226531982, 0.37509778141975403, 0.23313111066818237
0.9331700205802917, -4.203394412994385, 0.34925296902656555, 0.23317617177963257
-0.93223637342453, -4.248785495758057, 0.3187693953514099, 0.23328524827957153
0.4901689291000366, -4.263068199157715, 0.34898194670677185, 0.23360681533813477
0.7723646759986877, -4.055831432342529, 0.31010201573371887, 0.23322629928588867
0.19276238977909088, -3.988431215286255, 0.402519553899765, 0.23350530862808228
0.5513216853141785, -4.2513508796691895, 0.2893795967102051, 0.23311349749565125
0.5477361083030701, -4.061557292938232, 0.34894829988479614, 0.23350530862808228
-0.8784571290016174, -4.210078239440918, 0.33517763018608093, 0.23328524827957153
0.8043976426124573, -4.070252418518066, 0.2490645945072174, 0.23326212167739868
-1.4162261486053467, -4.028319835662842, 0.31915366649627686, 0.23348850011825562
0.6900286078453064, -4.003905773162842, 0.41600924730300903, 0.23331359028816223
0.42310282588005066, -4.204763889312744, 0.362736314535141, 0.23360681533813477
-0.28995758295059204, -4.206838130950928, 0.36513832211494446, 0.23321855068206787
-2.677842855453491, -4.183546543121338, 0.3852732479572296, 0.23347178101539612
0.5763769745826721, -4.108151912689209, 0.33934909105300903, 0.23316067457199097
0.5973696112632751, -4.229206085205078, 0.32627832889556885, 0.2332303524017334
-2.6874876022338867, -4.25454568862915, 0.41453757882118225, 0.23361575603485107
0.3729390799999237, -4.045332431793213, 0.3346785604953766, 0.23342454433441162
0.42871320247650146, -3.968470335006714, 0.4138568341732025, 0.23338091373443604
-1.2097067832946777, -4.265637397766113, 0.4011034667491913, 0.23328524827957153
0.8266991972923279, -4.230104923248291, 0.3115786015987396, 0.2331714630126953
0.8166165947914124, -4.2892022132873535, 0.35870859026908875, 0.2332828938961029
1.0611097812652588, -4.055831432342529, 0.31010201573371887, 0.23339492082595825
0.44577306509017944, -4.231032848358154, 0.41749998927116394, 0.2334316372871399
0.7594290971755981, -4.134566307067871, 0.3436488211154938, 0.2334316372871399
0.6961297392845154, -4.194054126739502, 0.4197509288787842, 0.2334490418434143
1.0261523723602295, -4.27556848526001, 0.35975703597068787, 0.2331714630126953
0.25092026591300964, -4.255263328552246, 0.3007946312427521, 0.23342454433441162
1.102929711341858, -4.131776809692383, 0.3673762083053589, 0.2331714630126953
-0.30488449335098267, -4.302210330963135, 0.3475758135318756, 0.23323112726211548
0.4853460192680359, -4.092157363891602, 0.46917036175727844, 0.23339492082595825
0.37850552797317505, -4.252290725708008, 0.33651435375213623, 0.23311349749565125
0.555131733417511, -4.0647053718566895, 0.31794604659080505, 0.23340186476707458
-0.7986287474632263, -4.217212200164795, 0.3843008577823639, 0.23313111066818237
-0.21273978054523468, -4.26678991317749, 0.36782655119895935, 0.23332011699676514
0.015637334436178207, -4.276279449462891, 0.2800706923007965, 0.2331816554069519
0.3034399449825287, -4.266041278839111, 0.4018033444881439, 0.23321408033370972
-0.1495591253042221, -4.195467472076416, 0.34275588393211365, 0.2331816554069519
0.06456221640110016, -4.1772966384887695, 0.33302560448646545, 0.23313111066818237
0.6777264475822449, -4.021825790405273, 0.3675830364227295, 0.23318105936050415
1.0160248279571533, -3.962932825088501, 0.37708336114883423, 0.2332754135131836
-2.0413854122161865, -4.184776782989502, 0.3671293258666992, 0.23361575603485107
0.8945158123970032, -4.225885391235352, 0.41277655959129333, 0.23335593938827515
1.0351309776306152, -4.275012969970703, 0.30959078669548035, 0.2332754135131836
0.44649064540863037, -4.221787929534912, 0.4044174253940582, 0.23338916897773743
0.4572671949863434, -4.285882472991943, 0.3278563916683197, 0.23300355672836304
0.3270185589790344, -4.2531352043151855, 0.3248465955257416, 0.2332836389541626
0.471285343170166, -4.245566368103027, 0.37459418177604675, 0.23318758606910706
-1.3687005043029785, -3.9395697116851807, 0.42500820755958557, 0.2338348627090454
0.8377280831336975, -4.269853591918945, 0.32154425978660583, 0.23307642340660095
-0.4167778491973877, -4.045332431793213, 0.3346785604953766, 0.23336854577064514
0.13429731130599976, -4.216862201690674, 0.37337490916252136, 0.23343873023986816
-0.4483340084552765, -3.970695972442627, 0.30594050884246826, 0.2338348627090454
-1.2726376056671143, -3.986631393432617, 0.3979399800300598, 0.23325154185295105
-0.8658670783042908, -3.934645175933838, 0.3023031949996948, 0.233258455991745
-1.2112603187561035, -3.9395697116851807, 0.42500820755958557, 0.23331063985824585
-0.0852338969707489, -4.34768009185791, 0.29431289434432983, 0.23313111066818237
0.9131788015365601, -4.280388355255127, 0.3227369785308838, 0.23349004983901978
0.8587499260902405, -4.206258296966553, 0.35508060455322266, 0.23335593938827515
1.0972659587860107, -4.025579929351807, 0.3932513892650604, 0.23322424292564392
0.936152994632721, -4.097721099853516, 0.4244525134563446, 0.23317617177963257
0.7014400362968445, -4.010416507720947, 0.29423102736473083, 0.2330814003944397
0.7667178511619568, -4.269686698913574, 0.3146882653236389, 0.23332443833351135
-0.5090851187705994, -4.295997619628906, 0.33640870451927185, 0.23325154185295105
-0.8059470057487488, -4.257862567901611, 0.3154238760471344, 0.23332080245018005
0.5165717005729675, -4.302210330963135, 0.3475758135318756, 0.23330765962600708
0.08000710606575012, -4.188769340515137, 0.38022178411483765, 0.23331063985824585
0.5834020972251892, -4.2582173347473145, 0.3807753622531891, 0.23330765962600708
-0.02336212620139122, -4.184776782989502, 0.3671293258666992, 0.23323112726211548
-1.4400901794433594, -4.250382900238037, 0.33387044072151184, 0.23328524827957153
0.5675147175788879, -4.263058662414551, 0.3144541084766388, 0.23336756229400635
-0.07493143528699875, -4.221787929534912, 0.4044201672077179, 0.23326748609542847
0.29431742429733276, -4.308470726013184, 0.32604846358299255, 0.23343873023986816
-1.32815420627594, -4.146411895751953, 0.4324297308921814, 0.233258455991745
-1.2003250122070312, -4.21485710144043, 0.3403056561946869, 0.23338547348976135
0.741165280342102, -4.069954872131348, 0.37359482049942017, 0.23331105709075928
0.4904617667198181, -4.230104923248291, 0.3115786015987396, 0.23300355672836304
-1.580928087234497, -4.183546543121338, 0.3852732479572296, 0.23326057195663452
0.29172849655151367, -4.157060623168945, 0.3761533498764038, 0.23343873023986816
0.204453244805336, -4.0061750411987305, 0.45415470004081726, 0.23360681533813477
0.3401423990726471, -4.191360950469971, 0.28615519404411316, 0.23342585563659668
0.7071776986122131, -3.9826571941375732, 0.3526969254016876, 0.23330765962600708
-1.200817584991455, -3.90529203414917, 0.4859081208705902, 0.23312151432037354
1.104477882385254, -4.204834461212158, 0.3681337833404541, 0.2332754135131836
-0.8549835085868835, -3.951996088027954, 0.37692925333976746, 0.23326057195663452
0.7259035110473633, -4.21580171585083, 0.33907046914100647, 0.2334490418434143
0.7371413111686707, -4.204834461212158, 0.3681337833404541, 0.2334316372871399
0.7150503396987915, -4.274745464324951, 0.3826047480106354, 0.23326212167739868
0.7925333976745605, -4.028319835662842, 0.31915366649627686, 0.23337450623512268
0.588219940662384, -3.9731740951538086, 0.3747529685497284, 0.23318731784820557
